{"layers":[{"out_depth":3,"out_sx":32,"out_sy":32,"layer_type":"input"},{"sx":5,"sy":5,"stride":1,"in_depth":3,"out_depth":16,"out_sx":32,"out_sy":32,"layer_type":"conv","l1_decay_mul":0,"l2_decay_mul":1,"pad":2,"filters":[{"sx":5,"sy":5,"depth":3,"w":{"0":-0.049719682805228683,"1":-0.020947239980796582,"2":-0.14111908605377768,"3":-0.05960260956772005,"4":0.24537118631746715,"5":-0.0558142107758835,"6":-0.1540625246849103,"7":0.22228288362513443,"8":-0.043716332093213295,"9":-0.10341235738278763,"10":0.12877428974707364,"11":-0.013151593090014947,"12":-0.16272336074061589,"13":0.050034185442043584,"14":0.18029255216105083,"15":0.055293628911213075,"16":0.008189851771225266,"17":0.18175762526257494,"18":0.11225103149647495,"19":0.10573427700804393,"20":0.07976796382827261,"21":-0.1201984972459582,"22":0.007844290999930377,"23":0.259711100408056,"24":-0.05276448407856136,"25":0.008353767045815228,"26":0.15003238430045496,"27":-0.09259657197829721,"28":-0.062046694371522076,"29":0.02722495585160094,"30":-0.1888971497828166,"31":0.23707037206968348,"32":-0.14603482368696402,"33":-0.11526649954812312,"34":0.13834801428633345,"35":0.30618690113655284,"36":-0.1300548405998114,"37":-0.012944044411688862,"38":0.08891750192739088,"39":-0.19661096064791087,"40":0.13676613095904222,"41":0.2676743378342982,"42":-0.13702684470395762,"43":0.22339917947102864,"44":0.06371473035298346,"45":-0.2845190327102111,"46":0.0726234483822662,"47":0.029287829870156705,"48":-0.16745829275559482,"49":-0.07058860496144001,"50":0.15700460478510714,"51":-0.010268578595746505,"52":0.056971511132410765,"53":0.12264232937059803,"54":-0.11072212489328183,"55":0.11460407152594691,"56":0.21494447843662792,"57":-0.09598858645210621,"58":0.09070979958858934,"59":0.14094146230866667,"60":-0.05341434105728971,"61":0.0940718576679509,"62":-0.021630923185649093,"63":-0.10358996368782013,"64":-0.02631839776633299,"65":0.06999339379835183,"66":-0.25292706749191873,"67":-0.06577902349713075,"68":0.08883202335883228,"69":-0.017099074890857248,"70":-0.040206581602157745,"71":-0.09571217085285919,"72":-0.07797684910312554,"73":-0.08222031563106146,"74":-0.09907344499033828}},{"sx":5,"sy":5,"depth":3,"w":{"0":0.03523344081622872,"1":0.22780888088790024,"2":-0.18786319761770048,"3":-0.07930869763399528,"4":-0.07147022327720354,"5":-0.24806369640552925,"6":-0.24124955748046706,"7":-0.19620805911563038,"8":-0.16401821569527789,"9":-0.21117518008679823,"10":0.04674547552166804,"11":-0.05353379420071423,"12":-0.11675132139438019,"13":-0.06337367362709491,"14":-0.2520594614972842,"15":0.20331781525441295,"16":-0.037337161149106554,"17":-0.028890221391548614,"18":-0.0985576310754996,"19":-0.026245226512799074,"20":-0.2040975831422777,"21":0.03632883841391493,"22":0.22376554267753473,"23":-0.25197388175514157,"24":-0.05765463024204696,"25":-0.10716967972565425,"26":-0.006623836873583804,"27":0.06623024399303976,"28":0.20009061789020757,"29":0.062489600707971306,"30":-0.03665284221773395,"31":-0.11726023024520606,"32":-0.11286894792461229,"33":-0.08847041806381621,"34":-0.15688885820929518,"35":-0.29336943405122157,"36":-0.2924311432599565,"37":0.1558107447221646,"38":-0.262930183076933,"39":-0.15413351199715675,"40":-0.0870726821587329,"41":-0.026964566551124152,"42":0.1427831412371311,"43":0.0604270350171837,"44":0.12391077483616839,"45":-0.22030556835731455,"46":-0.08989400217176739,"47":-0.38344936880210756,"48":0.09064709893806662,"49":-0.0024593962767560738,"50":-0.1803197449720426,"51":0.04809889590663041,"52":0.04012371582791435,"53":-0.2588612965653531,"54":0.10159637571469285,"55":0.20063333964362343,"56":0.3037783552697924,"57":0.12228994762455327,"58":0.05399190568177826,"59":0.023317171318853795,"60":-0.18439213873378418,"61":-0.07345250975373994,"62":-0.06740168322347453,"63":0.019062323183673124,"64":0.039725892082928975,"65":0.010609045338784396,"66":0.3141928228984451,"67":0.05544002936013883,"68":-0.005295307249793583,"69":-0.09018225546474876,"70":0.23940652812756003,"71":0.02313768601249987,"72":-0.04171767500370667,"73":-0.012635431236086046,"74":-0.059406137660084436}},{"sx":5,"sy":5,"depth":3,"w":{"0":0.1575566663164568,"1":0.18407046288653706,"2":0.18633431919285376,"3":-0.1197869966533999,"4":0.016211031435998672,"5":-0.106845329422227,"6":-0.13240457227778352,"7":-0.18649370870538548,"8":-0.10975634952456971,"9":0.09412525663199299,"10":0.01145704100767282,"11":-0.10036683195560692,"12":-0.09188512278585619,"13":0.246363239818351,"14":-0.06917167272080191,"15":0.05146893468020319,"16":0.09051313638814182,"17":0.3116639319946841,"18":-0.1362390084769464,"19":-0.09751262183427915,"20":-0.2937334054251898,"21":0.05674346300235206,"22":-0.051960385564018184,"23":0.02336047728874006,"24":0.10608496158416071,"25":0.005186038095434928,"26":0.17446134260565213,"27":-0.12009382999754406,"28":-0.004317627365266599,"29":0.01769400418148479,"30":-0.10741894307493186,"31":-0.16725443949940003,"32":-0.09158946256472798,"33":0.05114004637942429,"34":0.08197096657883468,"35":0.1316204005588291,"36":-0.0024116952878734258,"37":0.15315639754360075,"38":0.09125251133443743,"39":0.12322925451584472,"40":0.05324822105050487,"41":0.04239041192642238,"42":0.019674944502922787,"43":0.17492108422714975,"44":-0.1096812862521662,"45":-0.005830371869389918,"46":-0.08081354807048591,"47":0.12595404539347016,"48":-0.03993826024631783,"49":-0.14094006577508433,"50":-0.07155799981274787,"51":0.048337600271986116,"52":0.21827682349663532,"53":0.08109643815363855,"54":-0.011249078903258167,"55":-0.04184655377919235,"56":0.336928270892094,"57":-0.2551040323103968,"58":0.11638261512880646,"59":0.07225789426596503,"60":0.1524106911292997,"61":-0.01353821217434282,"62":-0.007411259151569499,"63":-0.208971565709055,"64":-0.06874021753936568,"65":-0.20611369047077663,"66":-0.37948521979462635,"67":-0.05593963599219058,"68":-0.1534175311794369,"69":-0.3759714454074825,"70":-0.20757273738546306,"71":0.028889699728481526,"72":-0.3516638370895203,"73":-0.06162066721307214,"74":-0.23432254359915608}},{"sx":5,"sy":5,"depth":3,"w":{"0":0.18655366481403118,"1":-0.1488065521236109,"2":0.12130806730317406,"3":-0.06343918261876513,"4":-0.18108979886561966,"5":-0.25266989023475,"6":-0.015755103175680022,"7":-0.042475767200410755,"8":-0.10995057945874273,"9":-0.009857707156121859,"10":-0.21613513380462185,"11":0.011714128294929262,"12":0.03358884007600462,"13":0.26190275286927683,"14":-0.10761473387490425,"15":-0.14125124088085633,"16":-0.15163821652552553,"17":0.1537924358283832,"18":0.20881778962075817,"19":0.064527462953144,"20":-0.10269324318001956,"21":0.22511112595568722,"22":0.07801210141816939,"23":-0.010242352363464382,"24":0.2113921087238186,"25":0.13866225320384484,"26":-0.09770704498759672,"27":-0.13104630927784958,"28":-0.06793701690010716,"29":-0.09817651570267073,"30":0.10142804938284618,"31":0.2004863547792513,"32":0.05021964473925639,"33":-0.02924851440810003,"34":-0.08217076083595751,"35":-0.010763626312631534,"36":0.1289770522949939,"37":-0.04942847538016668,"38":-0.10116702875170897,"39":-0.06514288202121597,"40":-0.04215043963171588,"41":-0.10421158839292077,"42":0.06164781717879475,"43":-0.043071463467316815,"44":-0.07776007872659962,"45":0.29262873292800545,"46":0.022291949028845643,"47":0.005435661911420715,"48":0.1002668030602013,"49":0.002551803344555121,"50":0.06642181777763621,"51":-0.21228009060969916,"52":-0.1441565207814173,"53":-0.18170504021390116,"54":0.12982448886293438,"55":-0.03417576896549324,"56":-0.0883237852116359,"57":0.33638227999258435,"58":-0.07944892930688287,"59":0.07636514425117284,"60":0.1620182793576418,"61":-0.07871477694108207,"62":0.19527958455951955,"63":-0.12559204407483204,"64":0.08543238618708024,"65":-0.11403613046743921,"66":-0.31567105345390767,"67":0.058119349182063976,"68":0.08242453797020623,"69":-0.10592677436139089,"70":-0.22014591589115345,"71":-0.0012376576973901535,"72":-0.01615804720892087,"73":-0.2055284921948732,"74":0.30424370840025616}},{"sx":5,"sy":5,"depth":3,"w":{"0":-0.03791321826640495,"1":-0.04671484235402088,"2":-0.10396212207045627,"3":0.13235444484904135,"4":0.07517245289672073,"5":0.01853606067190039,"6":0.057657341100229804,"7":-0.23224876948742632,"8":-0.013508880437687852,"9":-0.26450231845874217,"10":-0.1837106032200509,"11":-0.032928391858343,"12":0.1017672703579831,"13":-0.0834318623927916,"14":0.05320361335080058,"15":-0.1281190418271645,"16":-0.2311328774075221,"17":-0.12291418358807682,"18":0.03339069518433457,"19":0.03835870920504406,"20":0.07279567934300711,"21":0.03974324536584585,"22":0.0195609291374227,"23":0.006007855686502271,"24":-0.14577760841071993,"25":-0.07108840538632051,"26":0.007448237886700709,"27":0.10849902090499568,"28":-0.051619529246597455,"29":0.017042227599430214,"30":0.03727694591819643,"31":-0.06804395958639627,"32":0.19630058942361575,"33":0.032865169741706605,"34":0.23754025873073295,"35":0.2522719968777384,"36":0.14553454633933274,"37":-0.016938799086054872,"38":0.2432749755252697,"39":-0.020903691100556288,"40":-0.32379429850978453,"41":0.01256958370175587,"42":-0.06935787962060465,"43":-0.21182001752429389,"44":-0.014725955744530499,"45":-0.03258559819214485,"46":0.036137392029028007,"47":0.29675697328348044,"48":0.07913112102861838,"49":0.1126765343003399,"50":0.0019652318011557156,"51":-0.06275963086772117,"52":-0.10718601055613587,"53":-0.023627172838887985,"54":0.06873034280215552,"55":-0.24770253727580144,"56":-0.010082330153439118,"57":0.12482841152727785,"58":-0.23040280626341136,"59":-0.1599217338571565,"60":-0.0414734204289006,"61":0.08414293394493541,"62":0.07535824217208878,"63":-0.12989852743646282,"64":0.009712299395732668,"65":0.13435628151562093,"66":-0.007707430227452027,"67":0.22997896292688483,"68":0.21165197125933014,"69":0.07135670855499754,"70":0.049400312185087676,"71":-0.07654822050162091,"72":0.13313988053065443,"73":-0.017198435652073997,"74":0.007974768637671728}},{"sx":5,"sy":5,"depth":3,"w":{"0":0.13067252274407554,"1":0.027871690553901065,"2":-0.10415710639549072,"3":-0.020884703194603775,"4":0.13753974962600937,"5":-0.21066906008891442,"6":0.18883046555474484,"7":-0.07049427805860417,"8":0.00894580653095181,"9":0.02960765663476158,"10":0.10131955210730513,"11":-0.011060093169284574,"12":0.009804031355983026,"13":0.013860000455031902,"14":0.0459209992134048,"15":0.024630129725325942,"16":-0.0009374447868848571,"17":-0.1707613808735583,"18":0.1355930246858147,"19":0.09428157422548254,"20":0.26727040279780195,"21":0.049711945117065365,"22":0.2749081031966857,"23":-0.09082743499995433,"24":-0.142811990713873,"25":0.18820277276906774,"26":-0.08502318934181348,"27":-0.15636861066932736,"28":0.06822823359871975,"29":-0.06718754555912211,"30":0.01562973608131497,"31":0.2142257010315087,"32":0.1481934162369573,"33":0.12237792435223994,"34":-0.15669073464834393,"35":-0.26190860535724864,"36":-0.22524610997393815,"37":0.2636659461833834,"38":0.14747153757584425,"39":-0.2269675550705805,"40":0.2093784699201293,"41":-0.15015617147829483,"42":0.09742694830123595,"43":0.1339807213975138,"44":0.0660972477286172,"45":-0.31077506499615204,"46":0.2530388187829838,"47":-0.024867473775183068,"48":-0.0845280107953711,"49":0.2401103328293054,"50":0.0025066903327961893,"51":-0.05787780123402879,"52":0.26680788617515155,"53":0.007766628891969188,"54":-0.06832708525600262,"55":-0.06001865932293883,"56":0.3441893692843005,"57":-0.03675282049504405,"58":-0.07554339201886616,"59":0.005690000149804794,"60":-0.18862922670088816,"61":0.19095302158303595,"62":0.05676526977049119,"63":0.02749781114577689,"64":-0.06461629461916685,"65":-0.1571572015287879,"66":-0.12283979006925813,"67":0.09736529104153646,"68":0.029644874429051258,"69":-0.28080765155497617,"70":0.12820191109104015,"71":0.2186321786316281,"72":0.08333054569922416,"73":0.07153180976480221,"74":-0.04952379331631595}},{"sx":5,"sy":5,"depth":3,"w":{"0":0.040487174632768026,"1":0.15491436773670048,"2":-0.029391715561728832,"3":-0.08974060981735232,"4":0.11322455179147357,"5":-0.10208752587551631,"6":-0.08784377065283523,"7":0.09570239857627787,"8":0.1168064748871378,"9":-0.051948662147049914,"10":-0.0010674092027276828,"11":0.21859868542887592,"12":0.057491654851192536,"13":-0.06786902670893047,"14":-0.10778053278212184,"15":0.03247989172272356,"16":-0.10207599788408152,"17":0.19965602649834782,"18":-0.19366165218225942,"19":0.006547628817446177,"20":0.1965379101105628,"21":-0.19286841105794872,"22":0.0673543931793374,"23":-0.06342172949876476,"24":-0.07042485405138914,"25":0.05288123157781843,"26":0.08061459231597383,"27":0.1791898976372221,"28":-0.04758563103436369,"29":-0.02013315352239401,"30":0.004816775810807334,"31":-0.13291151517817112,"32":-0.052941125121727495,"33":0.07955869407863128,"34":-0.1980652633478484,"35":-0.15100850637628077,"36":-0.17815677843054664,"37":-0.20620737077859233,"38":0.13891854237016069,"39":0.11387449596928399,"40":-0.1830343087795274,"41":-0.12248822750488904,"42":0.21638417623660866,"43":0.07677582088896451,"44":0.04156198999238868,"45":-0.256273140514715,"46":-0.061071517955377935,"47":-0.09547604361186186,"48":0.0040921260330794365,"49":-0.2120711140244137,"50":0.10053427165233246,"51":-0.005332753387560015,"52":-0.0956391269015705,"53":-0.053633944524434644,"54":0.0281694304984789,"55":0.1502774742395299,"56":-0.07281172697712757,"57":0.22996948569071238,"58":0.16306563203799668,"59":0.3131375578509919,"60":-0.22374282688346223,"61":0.06819199873794125,"62":0.0006066993921732231,"63":-0.20019200504074658,"64":-0.0034028033820560034,"65":-0.14195753298250333,"66":-0.05092229292433759,"67":-0.04604277017500305,"68":-0.09132571133980444,"69":0.11571718584748127,"70":0.3075163980015715,"71":0.08190373402044872,"72":0.10027678342737933,"73":0.27741337741819444,"74":-0.15053572699232318}},{"sx":5,"sy":5,"depth":3,"w":{"0":-0.2708601967257367,"1":0.13174368047764565,"2":0.037796053007307574,"3":-0.1676260599642852,"4":-0.1564630668432303,"5":0.04265961057478453,"6":-0.01204059687034711,"7":-0.009187365425421683,"8":0.17569248256805378,"9":0.1128094722206344,"10":0.07725261127966308,"11":0.09844449682447858,"12":-0.0015937784822371121,"13":0.08264197795195478,"14":0.09777315946676919,"15":-0.08045917616838105,"16":-0.28147790111179266,"17":0.23546903901617222,"18":-0.18232454176457946,"19":-0.036813073433684264,"20":0.18955714505253543,"21":-0.010803977439692462,"22":-0.29589609504717607,"23":-0.11065601578266404,"24":0.08314321352085069,"25":-0.14826531827788325,"26":0.06669004092493466,"27":0.15666246300007694,"28":0.029964403035306827,"29":0.09186743542103934,"30":-0.04169400598480925,"31":-0.02825258238369137,"32":0.1639841777846054,"33":0.12635001693823145,"34":0.02977140753985794,"35":0.13370005867337356,"36":0.04460486868585728,"37":-0.01498013117478608,"38":0.015534040477876203,"39":0.09199129576655325,"40":-0.16064374243491822,"41":-0.19597305149958888,"42":-0.1569979881631674,"43":-0.17080055519349177,"44":-0.02193031653074836,"45":0.29256398077806794,"46":0.005895985654124463,"47":0.21162145647175365,"48":0.08010056321030766,"49":-0.01802502529584039,"50":0.05038173398708777,"51":0.03837766139793069,"52":-0.05777038303208083,"53":0.14007197199066493,"54":-0.09294003231297542,"55":-0.08455078379374793,"56":0.062435145430580076,"57":-0.3528253532819189,"58":-0.19982736282725225,"59":0.020944626794639157,"60":0.12583674494511035,"61":0.002016741811704358,"62":0.0654677928295504,"63":0.0496652741352388,"64":0.05555855840728592,"65":-0.22211377631697757,"66":0.1264785249438311,"67":-0.1947707760975938,"68":0.2216632159769294,"69":-0.02245940616638532,"70":-0.1692465670905689,"71":0.13666742681075292,"72":-0.23247272103896302,"73":0.0059514256122431605,"74":0.1446808843173219}},{"sx":5,"sy":5,"depth":3,"w":{"0":0.06992994316048541,"1":0.018379075867836783,"2":0.08529734244176239,"3":0.35864903779790563,"4":0.13242985739226004,"5":0.23728820656591754,"6":-0.02579281266397463,"7":0.05367640147359576,"8":-0.026815427917669995,"9":0.0400802385928812,"10":0.009973856527867395,"11":-0.172255958813156,"12":0.24606991367923636,"13":0.06235933500036527,"14":-0.08263379407369598,"15":0.013429688692215776,"16":-0.18907624400649417,"17":0.15376916378646288,"18":-0.12260946257791011,"19":0.011983193390045513,"20":-0.17082631844308735,"21":0.010605000114986326,"22":-0.05171647496669187,"23":-0.047612193342455304,"24":-0.051620921170008084,"25":-0.2352465654758585,"26":-0.0018247030052871884,"27":-0.15676576845462303,"28":-0.1807658693749896,"29":-0.17730402837875192,"30":-0.0023930242394529268,"31":-0.013770966249630921,"32":0.21499176292635253,"33":-0.14894706337306146,"34":-0.2113249141323111,"35":0.18030097019700672,"36":-0.0004774372427939366,"37":0.03513519060775214,"38":0.09556329390601204,"39":-0.014715499199610163,"40":0.06399383430549385,"41":0.1254594920521436,"42":0.16004496827131098,"43":0.03515251635198477,"44":0.1496053341527553,"45":-0.09874169227132204,"46":-0.13208087062029528,"47":0.23252815984822958,"48":0.029861385009396568,"49":-0.14808479503007715,"50":0.09939388267459094,"51":0.1070635538961902,"52":-0.06050481368304036,"53":0.18095757800985326,"54":0.13086453418268146,"55":0.20542525448750742,"56":0.01243982270158904,"57":0.20714221722069578,"58":-0.17125179799060236,"59":0.10657091912486498,"60":-0.07306087807817632,"61":-0.21426146265058724,"62":0.2550686629860778,"63":-0.0736814142640088,"64":-0.06094618225425579,"65":0.07422608177249806,"66":-0.1009625947599079,"67":-0.09313380234027192,"68":0.10206417845175231,"69":-0.1603844154621496,"70":0.06687282530003011,"71":0.07116488100936573,"72":-0.19813297384529932,"73":0.015185567367846245,"74":0.08924338714554686}},{"sx":5,"sy":5,"depth":3,"w":{"0":-0.08458112210117737,"1":-0.10575780472866352,"2":0.0447384309070579,"3":0.05271253604501135,"4":0.008886544938481284,"5":0.08222522934395442,"6":-0.28382104173536254,"7":-0.06871745160253676,"8":0.09001861912551033,"9":-0.0010043565419566953,"10":-0.04224944047115126,"11":0.23824653914660326,"12":0.0037603476447256577,"13":0.0016305876799581891,"14":0.11936479106500371,"15":-0.3424586600405687,"16":-0.10005892634800496,"17":-0.1467653115720176,"18":0.03456880779393699,"19":-0.21654252119278733,"20":0.22655997335887848,"21":-0.23631110331267624,"22":0.043323238985722545,"23":0.01764066647695177,"24":-0.005362904969003917,"25":0.07753854826824626,"26":-0.07671892800796774,"27":0.15042929623230544,"28":0.04063590411291905,"29":-0.04501908298234228,"30":-0.16001641323372448,"31":-0.09395160760059922,"32":-0.026907411203376655,"33":-0.3276514790206693,"34":-0.033405554695510965,"35":0.19773031701107463,"36":-0.17563133091887823,"37":-0.008129250992210435,"38":0.14047201254919497,"39":-0.37596570712505134,"40":0.16969495981767127,"41":0.1018562512363706,"42":0.0016006097662983215,"43":0.2802842825889954,"44":0.07304026189104704,"45":-0.24813326439193378,"46":0.2902090773309272,"47":-0.011945505639930484,"48":-0.19852695780738802,"49":0.05184166868653846,"50":-0.08997750672903339,"51":-0.08965086923370603,"52":0.08212140068738183,"53":0.0017578131352107905,"54":-0.047909775160477557,"55":-0.11194819959067025,"56":0.030567884528343664,"57":-0.03894118402590042,"58":0.05055398150074382,"59":0.09226002148493649,"60":0.07566353504513637,"61":0.08385336592678855,"62":0.09369746060341357,"63":-0.19086059858704763,"64":0.07015109253521315,"65":0.11527611343108696,"66":-0.10876348173666106,"67":-0.05475828790043311,"68":0.16045096275268123,"69":-0.05737377805661704,"70":-0.1087500283457026,"71":0.040987810504971287,"72":-0.18720787532140357,"73":0.09836921820424477,"74":0.09150866043926764}},{"sx":5,"sy":5,"depth":3,"w":{"0":0.12846964698312935,"1":-0.11168721614071016,"2":-0.1267225781567775,"3":0.15340391798961048,"4":0.31830726999845466,"5":0.16253677825805218,"6":-0.15254315192715526,"7":0.018077870997149043,"8":-0.05644165987225577,"9":0.02426123382067265,"10":-0.03885524795582442,"11":-0.0025412993178950878,"12":0.042763418613263285,"13":-0.027968957413785283,"14":0.02651181693696076,"15":0.055710386513210634,"16":-0.1825643476965932,"17":-0.08217132760849463,"18":0.107354437442126,"19":0.056285601739120145,"20":-0.09577758380208792,"21":0.07042530317384144,"22":0.18034581177678932,"23":0.014394741141299272,"24":-0.1939922652453606,"25":-0.22173115032036095,"26":-0.09183690143832389,"27":0.184355422676378,"28":-0.01795129351730072,"29":-0.10011790579610577,"30":0.15699498417474173,"31":0.2434515067708154,"32":0.14076401870906005,"33":-0.006514250900679871,"34":0.014073904489294116,"35":-0.22691396785882148,"36":0.051100324367529856,"37":-0.0789320142162825,"38":-0.080459516956541,"39":-0.10999019701064836,"40":-0.09660860076922423,"41":-0.12640133631230357,"42":0.08679000856817987,"43":0.07726908489380724,"44":-0.03663769010403138,"45":-0.04499969328886991,"46":-0.049045353291190745,"47":0.0576014133426967,"48":-0.10118994649137135,"49":0.06488048736649404,"50":-0.05705304489570373,"51":0.18309174356898958,"52":0.07708975999670242,"53":0.1062481648145291,"54":0.08048558251004727,"55":-0.02328849820440107,"56":-0.10189587870579644,"57":-0.11974601979548875,"58":-0.11167527148487254,"59":0.15031315101851886,"60":-0.0857759061098066,"61":0.26344384168523527,"62":-0.18050923521371762,"63":0.002924967514512983,"64":-0.1488159466509504,"65":-0.08065216029124957,"66":-0.08249150397649359,"67":-0.04636440278784135,"68":-0.1545009956539704,"69":0.0844758342683069,"70":0.081650191354074,"71":0.2697037283219864,"72":0.09142900505671533,"73":0.011422798764333063,"74":0.017551338252427103}},{"sx":5,"sy":5,"depth":3,"w":{"0":-0.07906588473132194,"1":0.12525228978262434,"2":0.002046211338622318,"3":-0.06947980609427795,"4":0.07556290086978774,"5":0.09788775329264728,"6":0.15943102114466207,"7":0.24584630175461028,"8":0.13222512327558164,"9":-0.0000510794378701838,"10":0.13453542987985548,"11":0.07981308105906608,"12":0.025460375524044593,"13":-0.19196268480874287,"14":-0.11109373687404867,"15":-0.1324681444418804,"16":-0.18884607734558959,"17":-0.07864076649905592,"18":0.1016714438289532,"19":-0.07309081007131221,"20":-0.1751271841842597,"21":-0.055322972307482,"22":0.09483260443569408,"23":0.21030651893283867,"24":-0.06284489484662804,"25":-0.20339679085523485,"26":-0.07087430118791409,"27":-0.25033170453207204,"28":-0.12987263778511796,"29":0.014613122167063846,"30":-0.12755139021398923,"31":0.04636921786663741,"32":-0.023795707250948064,"33":0.12295401027855146,"34":0.15776837296646298,"35":-0.057729029003349905,"36":-0.15307054915519178,"37":0.046949246504920814,"38":-0.04639994960685363,"39":-0.052614484866863924,"40":-0.014084517007204644,"41":0.13597160289059826,"42":-0.31495064320758476,"43":-0.21979128166091355,"44":0.0699964453619616,"45":0.10439713135659603,"46":-0.05724867146936336,"47":0.020471315788655332,"48":0.025992875151574293,"49":0.07577440255653765,"50":-0.10346252701859224,"51":0.01340673542732904,"52":0.09339520883246888,"53":-0.16480615841550741,"54":0.11884900527311867,"55":0.22092691593473085,"56":0.11016649467563823,"57":-0.041248171361175465,"58":-0.0863697179367773,"59":0.019470544732500927,"60":-0.03633707585510779,"61":0.262908811036688,"62":0.023671236791310155,"63":0.09411172068336718,"64":-0.051718789553266656,"65":-0.07779083746090262,"66":0.15818790647308084,"67":-0.15413410865232735,"68":-0.09644123320820593,"69":0.1111691429735362,"70":0.14002374922121663,"71":-0.04934879380844414,"72":-0.0007062124408203269,"73":0.09315762469116216,"74":0.05162932034872875}},{"sx":5,"sy":5,"depth":3,"w":{"0":-0.2279451914976665,"1":-0.11087969268878957,"2":0.09732179123326402,"3":-0.25972181404538874,"4":-0.1964238711022979,"5":0.20761479950668174,"6":-0.3444061021394994,"7":-0.15309772086765017,"8":0.030260845472043506,"9":-0.22276295795997986,"10":0.08917193074441875,"11":-0.07330248078079357,"12":-0.17738194593294537,"13":-0.07971575746592617,"14":-0.00792277710113124,"15":-0.174815351907942,"16":0.2805403569025665,"17":-0.12745876925870064,"18":0.012938114829182014,"19":0.24487873421397646,"20":0.16483958527776188,"21":-0.13144770227370592,"22":-0.027567281047733972,"23":-0.07676676343498817,"24":-0.1327652505033806,"25":-0.05907297191173143,"26":0.23205097992877685,"27":-0.26681066671755305,"28":0.11715055759708776,"29":-0.027830946661431946,"30":-0.24717961202842012,"31":-0.04013482151645933,"32":-0.06368634091998762,"33":-0.21258209112505783,"34":-0.029576646272241755,"35":-0.09659787412654053,"36":-0.056705939291660505,"37":0.07338841786586134,"38":-0.1380727570070993,"39":-0.18201949415462887,"40":-0.04207645926692702,"41":-0.10883689733918861,"42":-0.2026739279169517,"43":0.03952714083428066,"44":0.03059958719202992,"45":-0.2759682942008245,"46":-0.02605879046930269,"47":-0.13550363970824642,"48":-0.31570193861323426,"49":0.03416635140888657,"50":0.07448235259000396,"51":-0.3008543808881345,"52":0.06712781508031021,"53":0.12987795643661867,"54":-0.13136698676696126,"55":0.017302258646413774,"56":-0.032343303730586734,"57":-0.13950550409444568,"58":-0.06930948832845571,"59":0.052544103403869585,"60":-0.0894162678596016,"61":-0.045458381417400814,"62":-0.18873799946007971,"63":-0.07653861278852186,"64":0.07719554145107636,"65":-0.0641327238425404,"66":-0.1181128169150282,"67":-0.14536861258111974,"68":0.09837467762053162,"69":-0.23495175719701858,"70":0.03558705944669453,"71":0.17700035512493867,"72":-0.21456465442333017,"73":0.1568508424428304,"74":-0.20170921871217798}},{"sx":5,"sy":5,"depth":3,"w":{"0":-0.211633599112434,"1":-0.007182283450359168,"2":0.03873427895380612,"3":-0.10186701343375594,"4":-0.15047384722476934,"5":-0.047787234012250254,"6":0.1552103103741055,"7":0.12737848127439888,"8":-0.011948845597064576,"9":-0.12456826666221323,"10":0.14677713617335364,"11":-0.007071131973954945,"12":-0.12545186838110065,"13":-0.041598394357376126,"14":0.06140064413104202,"15":0.050279452526655735,"16":0.14402842150260542,"17":0.14034783634575826,"18":0.06665062557123673,"19":0.006465449537321844,"20":0.09334810754527471,"21":0.03008216814616924,"22":-0.016704696036418856,"23":-0.049018345343446346,"24":0.020141259306334054,"25":0.01198645682549033,"26":-0.11600487902429155,"27":-0.3230287873410568,"28":0.23657110738499337,"29":-0.09844688158023451,"30":-0.15845513833365457,"31":0.020916722559719908,"32":0.07842625583439972,"33":0.11419084949152969,"34":0.10092569008430637,"35":-0.2340079077831894,"36":-0.056275140598158,"37":-0.05233050405801196,"38":-0.07926439365799333,"39":0.10140868325047948,"40":0.0446413995472259,"41":-0.14266505918458044,"42":-0.27449989468059477,"43":-0.11894594269042098,"44":0.042538461314459174,"45":-0.18346648834680906,"46":-0.19760234268362198,"47":-0.2680442246972225,"48":0.22214933252673275,"49":0.1496255433886529,"50":-0.07976605523100097,"51":-0.052222159475304446,"52":0.27754620840191485,"53":0.00422218950508712,"54":-0.006283705910037107,"55":0.22373389616943815,"56":0.09246245438110597,"57":-0.19622284850325084,"58":0.0416863389571785,"59":-0.44783010522447414,"60":-0.24687685652885333,"61":0.03940409246092661,"62":-0.006274686775020246,"63":0.16443460503482013,"64":0.1743205541421819,"65":-0.07021696083765985,"66":0.028243542834686244,"67":0.09595481525666251,"68":-0.1189972235119002,"69":0.08415391068918648,"70":0.19885676578823333,"71":-0.06748395458049646,"72":0.06763732733898405,"73":0.13521564624762572,"74":-0.13129861420058014}},{"sx":5,"sy":5,"depth":3,"w":{"0":0.12925063342770954,"1":-0.3392130710783613,"2":0.16624697504978075,"3":-0.31742934938673323,"4":0.01054735008740548,"5":-0.256951205281699,"6":-0.06811143858321005,"7":-0.17782046583248445,"8":-0.08450428586828786,"9":0.14926268693212438,"10":0.24335935374332882,"11":0.12049412667642893,"12":0.17325644254515316,"13":-0.18622021757211452,"14":0.01681115071599922,"15":-0.30574290631778284,"16":-0.15294297655138106,"17":0.08859587752573747,"18":-0.04534342339041349,"19":-0.2577935770495085,"20":-0.16178149192491004,"21":0.06411190971291433,"22":-0.13850754032978543,"23":-0.1413418397842154,"24":-0.0685135967773002,"25":-0.14370812112210168,"26":-0.17733362726460838,"27":-0.07988584228594701,"28":0.09507363014335575,"29":0.05995345228360747,"30":-0.0046847353675539905,"31":0.1499515418674114,"32":0.2328626427536828,"33":-0.19988501486604665,"34":-0.0579455694557231,"35":-0.13184421355653886,"36":-0.1600331689200683,"37":-0.17266916286312203,"38":-0.025311103448894198,"39":0.022402328328839337,"40":0.13571679568946268,"41":-0.04730124364730762,"42":-0.02115251390415512,"43":-0.09904847520307757,"44":0.11486506570669361,"45":0.03828926060543911,"46":0.026407625198135404,"47":0.08767439853768497,"48":0.13766408182406528,"49":-0.06026968635846149,"50":-0.07752109724680364,"51":-0.014816161889096097,"52":0.11696676161274978,"53":0.16017679431022547,"54":0.1939515932456303,"55":0.031908479838801,"56":-0.0331132047043922,"57":-0.059273896145154124,"58":-0.027746322380663564,"59":0.0943121851155542,"60":0.10800892795392963,"61":0.11654649371422138,"62":0.03065641849203236,"63":0.02173176819961273,"64":-0.30808541363314407,"65":-0.3125835313417709,"66":0.11085999053938679,"67":0.17989784326385455,"68":0.0029162545594940813,"69":-0.14321821351499875,"70":0.006318822644641685,"71":0.212739875495001,"72":0.011918670427417805,"73":0.06836385154454942,"74":0.221548075619017}},{"sx":5,"sy":5,"depth":3,"w":{"0":-0.20127844306004605,"1":-0.066153232594066,"2":-0.01739742215495217,"3":-0.13229010430416688,"4":-0.0750116993988662,"5":-0.22773904037319595,"6":-0.000052702777281445274,"7":-0.09214749143477004,"8":0.10433020082930149,"9":0.019937795121570172,"10":0.09933957699315786,"11":-0.15069920930856023,"12":0.11240340754373816,"13":0.0734109060179168,"14":0.006080867665579543,"15":0.08165822800595102,"16":-0.42331703464229725,"17":-0.15519212486890432,"18":0.10365762935277485,"19":-0.31674228684439193,"20":0.031631070095032764,"21":0.09127984354276496,"22":-0.12406286253701532,"23":0.009741835577908163,"24":0.19962021573177022,"25":-0.09123194399762165,"26":-0.059783202324473726,"27":0.17002969941886772,"28":0.03265963078539364,"29":0.05495483975419593,"30":-0.1847939035370808,"31":-0.09195499259272386,"32":-0.1608557159944022,"33":-0.0715925835164939,"34":-0.007567724825304126,"35":-0.15800165983224504,"36":-0.053414599721715236,"37":0.005994680849058892,"38":0.13895194032644698,"39":-0.01966967158848913,"40":0.0632765587411947,"41":0.08284236202484609,"42":0.18136377000470802,"43":-0.06371031713830402,"44":-0.0784236157977633,"45":-0.06927182507265253,"46":0.05334054236791596,"47":0.0002264005443349132,"48":-0.005195001887711282,"49":-0.04455700072829523,"50":0.04490014769042901,"51":-0.10562277063944243,"52":-0.035145620695918985,"53":0.27972482816458377,"54":-0.1618029863686514,"55":0.29424654157083574,"56":0.2935050591982609,"57":-0.08234191457805712,"58":-0.08743227134573056,"59":-0.052769970257811265,"60":-0.03654067505581724,"61":-0.05461507638835313,"62":-0.07154066063035984,"63":0.13537313091321856,"64":-0.11017590798128316,"65":0.08529270740881803,"66":-0.1032044499783648,"67":0.07345387661747736,"68":0.2694708915329465,"69":0.03525517259942091,"70":-0.06370503938195826,"71":0.12757931034002537,"72":0.22759036655812906,"73":0.060560335474203975,"74":0.13281525793048884}}],"biases":{"sx":1,"sy":1,"depth":16,"w":{"0":0.08629938015622154,"1":0.10289120353237605,"2":0.020340552346420696,"3":-0.031060454769096708,"4":0.20405466758101803,"5":-0.013063448510473983,"6":-0.003262307617257892,"7":0.17313841728980395,"8":0.11883210613058602,"9":0.310630063272405,"10":-0.1456824009956192,"11":-0.05787532402981732,"12":0.10858266786134417,"13":-0.011439167636920154,"14":0.10533514457643603,"15":0.10945492377740168}}},{"out_depth":16,"out_sx":32,"out_sy":32,"layer_type":"relu"},{"sx":2,"sy":2,"stride":2,"in_depth":16,"out_depth":16,"out_sx":16,"out_sy":16,"layer_type":"pool","pad":0},{"sx":5,"sy":5,"stride":1,"in_depth":16,"out_depth":20,"out_sx":16,"out_sy":16,"layer_type":"conv","l1_decay_mul":0,"l2_decay_mul":1,"pad":2,"filters":[{"sx":5,"sy":5,"depth":16,"w":{"0":-0.037431111651164486,"1":0.08153802645202617,"2":0.02370423675181533,"3":-0.030365672133877433,"4":-0.032229398655166434,"5":0.0045647028963350265,"6":-0.016745598087385308,"7":0.0547973631095813,"8":-0.09097802415424107,"9":0.08469711875470573,"10":0.09598086023431908,"11":0.01538044697000454,"12":-0.0015749375869867467,"13":0.007957576143144263,"14":0.026163138048636746,"15":0.03104032362813728,"16":-0.055989086260466184,"17":0.031220082760700114,"18":-0.050821234117367504,"19":0.013904263167512107,"20":0.001259324554304883,"21":0.006948258086162224,"22":0.011141959006324854,"23":-0.02787559190340526,"24":-0.04762399095840866,"25":-0.04956015047486266,"26":0.0019945477535295024,"27":-0.0313786732236181,"28":0.003253333078702599,"29":-0.002006123440143274,"30":0.03296660102136976,"31":0.07551730338247416,"32":-0.029433367552022107,"33":-0.005440687795237069,"34":-0.11202722014767755,"35":-0.03326622845637572,"36":-0.05704261371134423,"37":0.05493718245056141,"38":-0.02520992803928934,"39":-0.13062969311458086,"40":-0.05180058947811031,"41":0.035463767227211174,"42":0.004539374701972478,"43":-0.0491544554838468,"44":-0.07408248194350378,"45":-0.02358770664842701,"46":-0.01787834407309047,"47":-0.0312308700093283,"48":0.020546112984749773,"49":0.04885648288417069,"50":-0.07691879909470627,"51":-0.04614923747376034,"52":-0.011437643366379015,"53":-0.005351584615778111,"54":-0.07214252760274575,"55":-0.13300776132153186,"56":-0.06198232191956255,"57":-0.0749847659689206,"58":0.0007280627381850238,"59":-0.044729121744709374,"60":-0.031477306776911046,"61":-0.047479044059508285,"62":0.01379624436254233,"63":-0.05360585694708621,"64":-0.10909807164881054,"65":-0.008375840025455671,"66":-0.06465924709676377,"67":-0.017334637578168204,"68":-0.09649689156404345,"69":-0.05761107467748321,"70":-0.0044540742128870965,"71":-0.1105378190328753,"72":-0.10526645235098235,"73":-0.03592883696569373,"74":-0.001229744412265433,"75":-0.04702091900097667,"76":-0.08923798082537848,"77":0.030775332374937337,"78":-0.05621909937818181,"79":-0.09633914148015794,"80":-0.0726424074119935,"81":0.01925613531606739,"82":0.04306940835789071,"83":-0.06525057204237875,"84":-0.05970179429649323,"85":0.019237070613808218,"86":0.04900839681295422,"87":0.010697190133408689,"88":-0.10063510178466223,"89":0.03627288560657532,"90":-0.010807722540383426,"91":0.047966423300647806,"92":-0.10728187674343367,"93":0.0639760348652095,"94":0.005178082618904594,"95":0.053039179449292775,"96":0.049988928104784225,"97":-0.030503603356338265,"98":0.022474247979240056,"99":-0.01476627028563356,"100":-0.0016480422335708462,"101":0.03815305938524319,"102":-0.027264211508984896,"103":0.0012905002495240837,"104":-0.06255947284834032,"105":0.0394982676474775,"106":0.02428791084176458,"107":0.017350649138952616,"108":-0.07591834220535243,"109":0.02780064943439396,"110":-0.025126609720098624,"111":-0.059743826541061064,"112":0.026296888062887477,"113":-0.02603901009629497,"114":0.013971693909193917,"115":0.06105760448843768,"116":-0.035631673222836356,"117":-0.022131333244029897,"118":-0.0154935569329622,"119":0.008399739501006165,"120":0.001839387945540935,"121":0.11094140921040481,"122":-0.02935155221958458,"123":-0.016170168040750468,"124":-0.09681466603714049,"125":-0.041294130680778786,"126":-0.005224439746690977,"127":0.015331377985402475,"128":0.061942576825380874,"129":-0.015751121291297382,"130":-0.08013200983322119,"131":0.0389490844824572,"132":-0.058456080374917174,"133":-0.019089751825596253,"134":0.10238479938044132,"135":-0.06038258984168958,"136":-0.04826471516985844,"137":-0.03688498011725537,"138":-0.14556043216974213,"139":-0.05961804661022041,"140":-0.06605422486115613,"141":-0.031432365838786114,"142":-0.0498005536172352,"143":-0.015762080550050708,"144":-0.019290853598814012,"145":-0.040620346796614366,"146":0.027028823353799563,"147":-0.04689241104722801,"148":-0.07885021183205411,"149":0.02653007412981037,"150":0.09865178752176712,"151":0.07529169929059495,"152":-0.007110006931246222,"153":0.03378900979548739,"154":0.011658020790447263,"155":0.006783009361870509,"156":-0.01544903033854778,"157":0.012954447303062796,"158":-0.06074057703334287,"159":-0.09809894686142627,"160":-0.018436785189869208,"161":-0.01738675043940708,"162":-0.006243987449171154,"163":-0.07485476468491635,"164":-0.08743954270389775,"165":-0.00164653744863368,"166":0.06194751105294062,"167":-0.12846427747682312,"168":-0.0543196771124372,"169":0.05062607993591812,"170":-0.060367871423910965,"171":0.0975505010106349,"172":-0.039003874075170065,"173":0.07785505143463513,"174":-0.035510461561045016,"175":-0.12907594161155217,"176":-0.021211833737055267,"177":-0.09106196135871529,"178":0.06641737414618105,"179":-0.023886811962515925,"180":0.08558081722290525,"181":-0.0173415847131243,"182":0.033141794379042445,"183":-0.021483191178818525,"184":0.006344648034547112,"185":0.06571832979359005,"186":0.04774853026551975,"187":0.12239087281606345,"188":-0.04557560725555123,"189":0.09245382278637765,"190":-0.03661809691469114,"191":-0.13107211153357462,"192":0.05229793395830412,"193":-0.09151102590001053,"194":0.09163106823993519,"195":0.048168628667067045,"196":-0.05411046581741942,"197":0.05248490676998616,"198":0.09620422700395322,"199":0.026179304579942452,"200":-0.055837382135151166,"201":0.1334956331974128,"202":-0.0035408260822931497,"203":-0.0346434670394687,"204":-0.019673004036664804,"205":-0.10344434273512572,"206":0.06255255459390133,"207":-0.0015779889637770948,"208":0.03639201294389547,"209":0.07197072013157337,"210":-0.08974654658831976,"211":-0.07982412834117242,"212":-0.014541771646894462,"213":-0.06761956432549995,"214":0.03778470264748214,"215":0.024188886294659408,"216":-0.09406207098593003,"217":0.07199948941024732,"218":0.01399959593295538,"219":-0.1260669300232946,"220":-0.010284209521129644,"221":-0.049509287811892684,"222":-0.10143631656371724,"223":0.07131079916620627,"224":0.010287153412370085,"225":0.01604670424303982,"226":0.04494191985966317,"227":-0.06035124357793038,"228":-0.04348448985579738,"229":-0.0012197504435804858,"230":0.04949139238410103,"231":0.07273834055079269,"232":-0.005160455427239228,"233":-0.018605885192291803,"234":-0.003998634423981886,"235":-0.029018972911385395,"236":0.003081290216523303,"237":0.020682938349116393,"238":0.05417971070054873,"239":0.022849956635534196,"240":-0.00869068634865393,"241":-0.02003541002946467,"242":-0.0029047964098120192,"243":-0.08738454969830477,"244":-0.08890682111211984,"245":0.08923037059495635,"246":0.014107002821492682,"247":-0.17921985255541015,"248":-0.10995775415896027,"249":-0.0082571797431552,"250":-0.0513933250368737,"251":0.12279988767692317,"252":-0.07932860810588066,"253":0.12771786403431068,"254":0.01992912351619314,"255":-0.02940161276611278,"256":-0.02353198906768094,"257":-0.12545573181645875,"258":0.005766793300557521,"259":-0.005386641175929071,"260":-0.002237738147988049,"261":0.11143480309711358,"262":0.029660741559227103,"263":-0.009639295723956087,"264":-0.12315400191711583,"265":-0.031972772487196426,"266":0.05493741654256219,"267":0.16328292842940803,"268":-0.10377838235346158,"269":0.10480711600737977,"270":-0.056293460442273194,"271":-0.03939984506745253,"272":0.03671141026637859,"273":-0.002730834077875657,"274":0.05098579075421673,"275":-0.05097379666023898,"276":0.03763357451458999,"277":0.05020951035775385,"278":0.023657479354457653,"279":0.0034280366028919445,"280":-0.16257254528501375,"281":0.03257081948369344,"282":-0.04837764417767049,"283":0.12620184999969844,"284":-0.04722229733791514,"285":0.03437821898952353,"286":0.1456195234040834,"287":-0.04113600171807796,"288":0.08891465928405291,"289":0.034390026034284156,"290":0.08919442103495336,"291":-0.060429750548935686,"292":-0.0574291659815902,"293":-0.010570056426936226,"294":0.15091399013103174,"295":0.05755684572500541,"296":-0.029659740775996937,"297":0.05101779932937649,"298":-0.10613648277334406,"299":0.06578420348169083,"300":0.027321606763712317,"301":0.05394550252697202,"302":0.07347657080476248,"303":0.06594696594832603,"304":0.073501519335424,"305":-0.052093635874679564,"306":0.06274440604872195,"307":-0.09582287359101999,"308":-0.02347935875206333,"309":0.10395411231876789,"310":0.12818471663167622,"311":-0.040362569113680725,"312":0.10477292867002556,"313":0.10779808785022961,"314":-0.016263696108877443,"315":-0.09089706033607495,"316":-0.009152559186026329,"317":-0.03835664852517027,"318":0.07537808206607075,"319":0.0905527956359135,"320":-0.12546714323962685,"321":0.07153469043467081,"322":-0.028271695685826177,"323":0.018492058312389533,"324":-0.11615006132038193,"325":-0.0059286698029390955,"326":0.1279766647517522,"327":-0.03484442735584313,"328":-0.16452806656147342,"329":-0.029933587840023326,"330":0.008682687088850194,"331":0.05672501844275651,"332":-0.175311648724892,"333":0.061205475073210114,"334":-0.0267711389538148,"335":-0.062077968485635564,"336":-0.018755286080660707,"337":0.07085751567902379,"338":-0.02009802612613799,"339":-0.12949734853077766,"340":-0.06160685350433612,"341":-0.02148472703813649,"342":-0.0007690777557056349,"343":-0.07645371226711814,"344":-0.09719574258861945,"345":-0.047206774953390415,"346":0.013029551108607661,"347":0.14294544607607368,"348":-0.21085291047427715,"349":0.13543746929767222,"350":-0.14937967941849253,"351":-0.04455277393910811,"352":-0.039529105702219486,"353":0.029016919430852876,"354":0.12040131494063043,"355":0.1244947451684448,"356":0.05138201407845715,"357":0.03568636316067623,"358":-0.007368418929527249,"359":0.13158819302127803,"360":-0.2375750351992293,"361":-0.07765619959529249,"362":0.04849224404762934,"363":-0.001120378328819263,"364":0.007813388288417647,"365":0.10164095415977167,"366":-0.07770441532943506,"367":-0.16094668990525668,"368":-0.0037811332562439058,"369":0.0568894286964866,"370":0.04476049703207544,"371":0.06804008924765523,"372":-0.11991958704196788,"373":0.021153620087623382,"374":0.025905346039543094,"375":-0.019902112290033518,"376":-0.08457968267300323,"377":0.01892523019816385,"378":0.008152216004979354,"379":-0.014703219331628993,"380":0.07419029592452722,"381":0.03403653022214552,"382":0.01693100972477734,"383":0.11862501051570946,"384":0.07238242604960424,"385":0.04018134392489289,"386":0.009545207583048672,"387":-0.08302845229286211,"388":0.003655809769608357,"389":-0.008504671204870022,"390":0.13000782229911595,"391":0.03577559391729182,"392":-0.045665381816387636,"393":0.13911454751820954,"394":-0.021486668268812546,"395":-0.02380271906567238,"396":0.07990790298471136,"397":0.01135457522787669,"398":0.03343407965004218,"399":0.0867060446842299}},{"sx":5,"sy":5,"depth":16,"w":{"0":0.05932097883916421,"1":-0.12704584278973763,"2":0.13001211178402136,"3":0.08005932158560038,"4":-0.04858497857265115,"5":0.11376092690364631,"6":-0.0008673736601679986,"7":-0.0053394152048068105,"8":0.012536944314356858,"9":-0.040297428068642165,"10":0.0909469058460551,"11":0.0678786039067548,"12":0.046928337749305236,"13":-0.060011485310784686,"14":0.025521735714290197,"15":0.022587851934701603,"16":0.07067452863868207,"17":0.0776064211537745,"18":0.18666358877476516,"19":-0.003028126668782953,"20":-0.17477522780424257,"21":-0.02215453670640745,"22":0.0033018575458519206,"23":-0.06132274732452327,"24":0.01271904122364175,"25":-0.01813157397956396,"26":0.09639595946388173,"27":-0.09233766242783993,"28":0.009446939978787587,"29":-0.08778987843775066,"30":-0.0710690630748242,"31":-0.018401905774103063,"32":0.03259563025400997,"33":-0.04697560269831247,"34":0.06474650662774412,"35":0.024820401608215272,"36":0.05110399432453597,"37":-0.02748973538812977,"38":0.05689199523503358,"39":0.05171108506196863,"40":0.000294769535513447,"41":0.031501527070517815,"42":0.09655371806684798,"43":-0.08639247308462117,"44":0.0867106430575632,"45":0.017216880958453244,"46":-0.0419793263134629,"47":-0.11415232243717005,"48":0.013905278582974342,"49":0.0705216360308094,"50":0.02063728259691539,"51":-0.03666142645524426,"52":-0.08795379322986568,"53":-0.021971549056745664,"54":0.06334360006848863,"55":-0.048727885554617274,"56":-0.011379477092625778,"57":-0.016177713055878517,"58":0.12042061588357289,"59":-0.10068642168323723,"60":0.05395228158296202,"61":-0.12366092833176541,"62":-0.21967497106266104,"63":-0.10539258828089913,"64":-0.023777585557270622,"65":0.028478123826615617,"66":0.029985058144421164,"67":-0.04545812327808715,"68":-0.11790467767219023,"69":-0.04010165322580512,"70":-0.12261899807761661,"71":-0.09319319512893025,"72":0.02989408978158701,"73":-0.013435659205000177,"74":-0.0013927613389089256,"75":0.0022763159516816394,"76":0.007241029174426881,"77":-0.03846563496207815,"78":-0.11759355791429055,"79":-0.19006101150944796,"80":0.07338506723702293,"81":0.02825596190471219,"82":-0.10263301670982168,"83":0.005183276294439973,"84":0.020158160108147166,"85":0.004127821849056265,"86":0.08121477814574299,"87":-0.10244608866300224,"88":0.03235559694845726,"89":0.03751368709295524,"90":0.11955801476524128,"91":0.10963717806759743,"92":0.002877182326584578,"93":0.02406408101081893,"94":-0.009796570882076423,"95":-0.026103644993255633,"96":0.016109571565436763,"97":0.05914221018920112,"98":0.06768933742724383,"99":-0.024869020599883575,"100":0.10933976356255133,"101":0.04526835722142044,"102":-0.09751774861106442,"103":0.11353394232109609,"104":-0.001936155015645794,"105":0.08183605629063344,"106":-0.058852775015618294,"107":0.024996161803936864,"108":0.041511341114209406,"109":-0.07106764690643737,"110":-0.0026201922082454026,"111":0.024851311194023666,"112":0.055168033436482904,"113":-0.12336357820052288,"114":0.0061871930353899806,"115":-0.004241473291583557,"116":0.0903813698660622,"117":-0.015831619761020835,"118":0.029492800473409762,"119":0.04093436633874247,"120":0.10272315295292196,"121":0.07838823740111442,"122":0.20193766127785945,"123":0.07619660559128145,"124":0.02670612463001089,"125":0.07168661633979728,"126":-0.031191280845941305,"127":-0.0108539142594592,"128":0.11069172557937428,"129":-0.08281706158384544,"130":0.11382387969038868,"131":-0.06533305712370563,"132":0.1104826681505149,"133":-0.03321991212032124,"134":0.04813785369877546,"135":0.03857492567451328,"136":0.019933947688395105,"137":0.06684781525789624,"138":-0.04194390178315177,"139":0.001576810257844134,"140":0.03397656743856859,"141":0.04061817747929279,"142":0.03162717828808814,"143":-0.04667810808984696,"144":0.04620688738015514,"145":0.028160838281967013,"146":0.1197165295076844,"147":0.027874811547972,"148":-0.029652207209378462,"149":-0.10500613576868528,"150":0.030300337106697675,"151":0.026747658506065662,"152":0.0031555959440179404,"153":0.019044310371637122,"154":0.05462324718007064,"155":0.10598382675150433,"156":0.13783754285155464,"157":0.01161691887994368,"158":-0.04572587437417183,"159":-0.07444922169674263,"160":0.11820071857823727,"161":-0.1205011223151442,"162":0.08689210620771427,"163":-0.16315883548571042,"164":-0.18281304577275856,"165":-0.03313183116575933,"166":0.054138274408528586,"167":-0.05932983718722404,"168":0.0054193420006384855,"169":-0.041362399017526585,"170":-0.06740247410165366,"171":-0.08123805464666206,"172":0.07495524429995969,"173":0.025488587520703935,"174":-0.04418425996176896,"175":-0.05307547911358309,"176":0.05983887199019824,"177":-0.03338571791280339,"178":-0.10440789382692219,"179":-0.08605653826553022,"180":0.02505635925814955,"181":0.025402585592645285,"182":-0.06735641438665421,"183":-0.0017107498170567592,"184":0.02320091742839244,"185":-0.04470897665215273,"186":-0.03686847068813955,"187":0.11980447994207667,"188":0.016020575598084542,"189":-0.017697204200653332,"190":-0.07519237111614137,"191":-0.0679045372682106,"192":0.10315939987214016,"193":-0.0028059310636083953,"194":0.02453348435528032,"195":-0.15897502636167551,"196":0.034049679973311556,"197":-0.02565274003967722,"198":-0.01731671926038404,"199":0.09404488864057907,"200":0.030391984385007165,"201":-0.021383788365374714,"202":-0.03481289420413275,"203":0.005146376420082194,"204":0.01566509306595781,"205":-0.014486813426451216,"206":-0.014856869362558593,"207":-0.06542049140152217,"208":0.03794779333858723,"209":-0.0766863878651526,"210":0.05293721776300242,"211":-0.021497538267110195,"212":0.08137451321313274,"213":0.05322693009005005,"214":-0.04421890731909666,"215":0.05173623973780604,"216":0.04283884695243791,"217":0.052854378087155075,"218":-0.16572824076842924,"219":0.02366984176636261,"220":-0.012704588873643069,"221":-0.061364987114793344,"222":0.021710653273196188,"223":-0.08451692464926534,"224":-0.06899946941271674,"225":0.036089026174490925,"226":0.02645605667833528,"227":0.027715854198733122,"228":0.04435054678934453,"229":-0.10113124381922771,"230":0.06682800570956457,"231":-0.028501522699648427,"232":-0.03144145595347743,"233":-0.022180506708911845,"234":-0.16197646306945787,"235":0.012783127280794563,"236":0.026664423760237935,"237":-0.07945895252565516,"238":0.08765385112922255,"239":-0.027236485511428647,"240":0.01566478399671605,"241":-0.15569656506016452,"242":0.060745611873795534,"243":-0.06264735862819948,"244":-0.05818097481349373,"245":-0.07809550845326346,"246":-0.03531912957828371,"247":0.09458086641184407,"248":-0.05141877881467646,"249":0.028692052604809067,"250":-0.08219382659999644,"251":-0.06821388900270098,"252":0.07261437887867551,"253":-0.05079082864271163,"254":-0.04978768455461683,"255":-0.13298378735073002,"256":0.11835268825084781,"257":-0.0010473811223540579,"258":0.018497892344981868,"259":-0.07566762656926317,"260":-0.08866994788213806,"261":0.007354777672190583,"262":-0.06454348086731111,"263":0.0026386887447919986,"264":0.10036275858738675,"265":0.004526227931929373,"266":0.01825631852211222,"267":-0.0369517471162697,"268":0.09939820897136216,"269":-0.00088668816891237,"270":-0.14944694051257712,"271":-0.1796603867543693,"272":0.0704166078988823,"273":-0.06525308866817431,"274":0.016009425814429264,"275":-0.05940882846276906,"276":-0.15783306514680204,"277":0.08598450804525556,"278":0.01797633678503666,"279":0.008612107402705906,"280":0.08655139958307147,"281":-0.133549849578785,"282":0.03881536059910286,"283":0.044180207929611685,"284":0.025854126288149044,"285":-0.04736238333704954,"286":0.0032522968287356556,"287":-0.07300247955428742,"288":0.012498665904848508,"289":-0.010094583364190753,"290":-0.09118559452419481,"291":0.024447278794423676,"292":0.12999796861648458,"293":0.01023678871037037,"294":-0.04652750811239626,"295":0.15079682531554697,"296":0.1601595457204772,"297":0.04674649544667327,"298":0.02805437541249898,"299":0.1439179314999337,"300":-0.015752364548365344,"301":0.05648477927457787,"302":-0.07564140625138026,"303":0.042191167151976086,"304":-0.02612715511428899,"305":0.07719027079085121,"306":0.01677335914569768,"307":-0.03602043563871707,"308":0.06430585764305571,"309":-0.008436834598025597,"310":-0.08725758047479162,"311":-0.01900997218555589,"312":-0.05636899679276275,"313":0.02250880201082974,"314":-0.12284744927432042,"315":0.0071648035744498895,"316":0.029293241941725976,"317":-0.031558517945601786,"318":0.04614888636142634,"319":-0.01692675654162985,"320":0.0449384887800426,"321":-0.08466545548069794,"322":-0.01725332384891974,"323":-0.004399792311307807,"324":-0.0032153720224503083,"325":-0.05997432002150953,"326":-0.06413143308800336,"327":0.035493787017000525,"328":-0.01180961601678518,"329":0.0034344137024076246,"330":-0.030892812644205923,"331":-0.03056810846760121,"332":0.02335445361670722,"333":-0.11163421476182413,"334":-0.10086598270605193,"335":-0.014205338853528081,"336":-0.020486063795220638,"337":0.006389251673683665,"338":0.060632097191855944,"339":-0.1493951252697146,"340":-0.06591021038356479,"341":-0.09948423148576695,"342":-0.05639053801679137,"343":-0.006599709524414263,"344":-0.09441984804354854,"345":0.11830635833651273,"346":-0.12862611668167956,"347":0.07497163546935211,"348":0.10317396164917227,"349":-0.13225695068433851,"350":0.0017224502152740767,"351":-0.006224319752964577,"352":0.1117517077207276,"353":-0.017005970332832847,"354":0.0709956667777253,"355":-0.09958750978642024,"356":-0.06765323343407582,"357":-0.06847311160285496,"358":0.12625969375416957,"359":-0.004825536336362189,"360":-0.03766619376116046,"361":0.039785360386420214,"362":-0.1729443147715911,"363":0.08361032723519438,"364":0.01809060711920497,"365":-0.040849128941471136,"366":-0.13667715585841153,"367":-0.009599711122744152,"368":0.053239993950850016,"369":0.009376794044748098,"370":0.005119871112432243,"371":-0.10384260058384143,"372":-0.03205032497483408,"373":0.0036936465556893527,"374":0.01156953281919454,"375":-0.022848944979641725,"376":0.002249972799784493,"377":-0.0055523915989178175,"378":0.029799921760203463,"379":-0.03411569426691127,"380":0.0577915624223451,"381":-0.10404870097646282,"382":-0.08772914028517091,"383":-0.08691491954366264,"384":-0.02907062393792205,"385":0.06025729095087012,"386":-0.027103850370257178,"387":-0.023670306665443,"388":-0.03244810398640603,"389":-0.01775094949813938,"390":0.03046160494684893,"391":-0.03481211827751635,"392":-0.07828737036110832,"393":-0.09392864650393666,"394":-0.042297201788301035,"395":0.07124021279634045,"396":-0.003111723998505414,"397":-0.011042877103532377,"398":0.013302820602885259,"399":-0.08673256982646164}},{"sx":5,"sy":5,"depth":16,"w":{"0":-0.04311529669289273,"1":0.0730955093890557,"2":0.06840193441371592,"3":0.032238508579361835,"4":0.03776891246328718,"5":-0.07706893944866515,"6":-0.05866973573982359,"7":0.124085853967121,"8":-0.04822824749316588,"9":0.08242469069714005,"10":-0.015043920302070794,"11":0.10818071398034244,"12":0.02996901616652931,"13":-0.0166951761902448,"14":0.06669299922825579,"15":0.06525189116250774,"16":-0.06328366378601619,"17":-0.0480764440395979,"18":0.0221487256704438,"19":0.08439788893985735,"20":0.224031342029442,"21":-0.010141040664743294,"22":-0.02642006090952801,"23":0.10856469608095735,"24":-0.069151910858964,"25":0.008938640189250923,"26":0.09419980284802401,"27":0.05353735756105707,"28":0.10875566142555167,"29":0.026856143648404242,"30":0.014914218611716294,"31":0.003582058740371101,"32":0.032942372099061173,"33":-0.006625576066772611,"34":-0.015406594353388418,"35":0.10208312584768757,"36":-0.05501454192757029,"37":-0.024880458257159354,"38":0.057230245473206695,"39":-0.13331916513554537,"40":0.038347058847582834,"41":-0.08955432551743595,"42":0.18003602866179313,"43":-0.08107905921651076,"44":0.05228234633365645,"45":0.06664674822179553,"46":0.02475237320909106,"47":0.0303832344267415,"48":0.055988807430719836,"49":-0.04232967025508351,"50":0.06840369634583035,"51":0.027339474402639608,"52":0.0015012620314746813,"53":-0.15593027725013128,"54":0.009836448770462943,"55":-0.07886404943230164,"56":0.0402057725257688,"57":0.058390822421750053,"58":-0.1266322661904349,"59":0.09716603730601579,"60":0.03491452381686409,"61":-0.017707162461654647,"62":0.08375829020270206,"63":0.12728202084862217,"64":-0.0949582640099119,"65":0.057526492186525974,"66":0.0192710052498402,"67":0.08675155947332686,"68":0.0718048875832363,"69":-0.06608066545611942,"70":0.09750236544506709,"71":0.02011424229931509,"72":-0.060916607716233966,"73":0.053358493344600945,"74":0.022384050096096213,"75":0.057243956685121625,"76":-0.08070978357062007,"77":-0.1451497250126191,"78":0.13591023496443938,"79":0.13114596588039393,"80":0.03564970112075548,"81":-0.0013012630401259863,"82":0.03313606337000634,"83":0.0783143216355199,"84":0.06212343899398681,"85":0.00013766648852524702,"86":0.08547780263934716,"87":0.1110847709002575,"88":0.040432997061545406,"89":0.15636165692497725,"90":0.060402552506303414,"91":0.11669849159529022,"92":0.07054050015625091,"93":-0.056706494671278085,"94":-0.06774512627066649,"95":-0.10056545833241803,"96":0.023981344005414226,"97":0.08476483698731718,"98":0.08137630355084342,"99":-0.10510207171764803,"100":0.037102030668809835,"101":-0.15305190152046466,"102":0.0965745936261894,"103":-0.0015648030905283238,"104":0.2407520840253905,"105":-0.03577502723245098,"106":0.08799641280079047,"107":0.12594470880658892,"108":0.0760822657625602,"109":0.09934748870142456,"110":0.07914293142126476,"111":-0.03376559172464432,"112":-0.09315111722875988,"113":0.01924951977470587,"114":0.083801282189513,"115":0.011779291647001316,"116":0.08992106921033932,"117":-0.16220112644964751,"118":-0.04865535787169807,"119":-0.20404902873317138,"120":0.16527938090372898,"121":0.07482321421419044,"122":-0.07899494754548797,"123":0.03487522661201059,"124":-0.04698540898180534,"125":-0.06627856694776059,"126":-0.045856044128419406,"127":0.06679174012809429,"128":-0.1271088416311982,"129":-0.037115766849781004,"130":0.06611993624782246,"131":0.06022224616975112,"132":0.13964118635039416,"133":-0.1627453961520519,"134":-0.14144051078424125,"135":0.0684236928870795,"136":-0.05320921425581405,"137":-0.0853700623975601,"138":-0.06944033538290063,"139":0.2098292400692781,"140":-0.03595295911721842,"141":0.05887944167066166,"142":0.06759945418342572,"143":0.05552868816271415,"144":-0.0784269091440715,"145":0.07563867747210223,"146":0.04233141021597529,"147":0.05901802526495097,"148":-0.01192268909241539,"149":-0.07847534670222515,"150":0.00697415951405022,"151":-0.08881036427020743,"152":-0.09795030758189363,"153":-0.06482942100213636,"154":0.16085426092224692,"155":0.089168918332153,"156":0.007504303786784462,"157":-0.12872628241949513,"158":0.07239793109720416,"159":0.006739127179384562,"160":-0.06790031723221007,"161":-0.1272105567768862,"162":-0.011086217245705214,"163":0.03160092603160653,"164":0.06147259019260953,"165":-0.2973178187150972,"166":0.08470556870187099,"167":0.06728245242860323,"168":0.0858700120214329,"169":0.08750372875600863,"170":-0.04993613937480625,"171":0.0017968990813198482,"172":0.14199535584744163,"173":-0.14904601649485594,"174":-0.006493802886916358,"175":-0.08324126301884814,"176":-0.031069287893516682,"177":-0.08180228186719112,"178":0.05862277367984699,"179":-0.1403361765443695,"180":0.017448566771957046,"181":-0.1613505085439954,"182":0.019532776577787816,"183":0.039501236370803425,"184":0.015863254075169926,"185":0.038327334998369066,"186":0.00016065773231995005,"187":-0.04802371029431908,"188":0.048807521807995975,"189":-0.08581858657303067,"190":0.004125814623351525,"191":0.019085388761939923,"192":-0.06628916925178706,"193":-0.03197604155609241,"194":0.04792576602517891,"195":-0.04511920771372713,"196":0.08937094843831273,"197":-0.08593498548437394,"198":-0.10349165163408726,"199":0.07806797292413498,"200":0.09096928415550681,"201":0.018605948289122706,"202":-0.11431323967811628,"203":0.02280351037620466,"204":-0.027765693944347775,"205":-0.13973445014188868,"206":-0.05370915268078601,"207":-0.030226938286101335,"208":-0.13766895221168118,"209":-0.009845233612406083,"210":-0.07691759265816005,"211":-0.00857459260921724,"212":0.007161311452156682,"213":-0.12082615519481688,"214":-0.08912491183250446,"215":-0.061158586250270035,"216":-0.027872694142332496,"217":-0.026533878455990853,"218":0.07482122599736843,"219":0.02053380427489435,"220":-0.001452743125190073,"221":-0.03649793465096475,"222":-0.06447440534739157,"223":-0.05280046817984252,"224":-0.1722856521367525,"225":-0.01777009413394402,"226":0.10571112961614643,"227":0.06125891031944625,"228":-0.11649210222559767,"229":-0.1958319132017093,"230":-0.15673738749861307,"231":-0.12166184024037892,"232":0.0023639273160084165,"233":-0.10726181079490196,"234":-0.05788359092772996,"235":-0.0788755671939713,"236":-0.00138440116544051,"237":-0.07235179554623385,"238":-0.050359553195479405,"239":0.1211975640614807,"240":-0.0789091925244119,"241":-0.021928576458349804,"242":-0.06984959166043038,"243":-0.1377717725359707,"244":-0.06367518301998676,"245":-0.07501477982495276,"246":-0.0022706889628733473,"247":0.08931210299999172,"248":-0.00880411115465956,"249":0.09049114664046337,"250":-0.07507330136759915,"251":-0.021308707094833502,"252":-0.00323166906828464,"253":-0.22052261901485887,"254":0.20248174284398593,"255":-0.0040335047517764955,"256":-0.05371044877560585,"257":-0.06358190169391585,"258":-0.05444524843354759,"259":-0.07649043397920907,"260":0.051247892730982327,"261":-0.11287722163467823,"262":-0.020568698146754213,"263":0.06770244375713232,"264":0.01549286762174795,"265":-0.006870938117479242,"266":-0.00030853625786232843,"267":-0.09768293199599987,"268":0.017303025009055065,"269":-0.08806780706978112,"270":-0.03154380424917652,"271":0.11685064889013154,"272":-0.05938895698637893,"273":-0.12134332461270522,"274":-0.04690508674970307,"275":-0.031440790748412585,"276":-0.0012430484392943052,"277":-0.15762312733662723,"278":-0.02867337657030808,"279":0.08829034164199492,"280":0.044596195596481585,"281":0.010977406709425631,"282":0.02794002752645479,"283":-0.08746053100939015,"284":-0.009421226352736754,"285":-0.10556223751686383,"286":-0.1306459897677854,"287":-0.03671211390753244,"288":-0.07559017888526394,"289":-0.0962205570593043,"290":-0.028610909190035692,"291":0.023072734122943736,"292":-0.08643809160527936,"293":-0.0676906928391909,"294":-0.039168381554433605,"295":0.08937881523608789,"296":0.09798852107930388,"297":-0.04866176271167522,"298":0.06970383159870437,"299":-0.007499819283940833,"300":0.04130326542511763,"301":0.01724591319936914,"302":-0.023766165626694667,"303":0.02055877645931021,"304":-0.08614069313422314,"305":-0.04388701943117619,"306":0.17564376482558614,"307":0.047393143001112595,"308":-0.019259544736804173,"309":-0.14532759568482911,"310":-0.03170560265830376,"311":-0.0025876208449540127,"312":0.06731963291515063,"313":0.003117315909759537,"314":0.08561640567481843,"315":0.036667855666196056,"316":-0.04665670079440537,"317":0.008980769279347203,"318":-0.08175266949504649,"319":-0.0944652370092059,"320":-0.03293448431290605,"321":0.029650774503406516,"322":0.04684933721740377,"323":-0.12083324543909099,"324":-0.024840716054185173,"325":-0.17184562627619782,"326":0.07595991599980745,"327":0.08503792387769878,"328":-0.025156099717425395,"329":0.026315707875030264,"330":-0.13276272510911788,"331":-0.12979209582835421,"332":0.012075860364091778,"333":-0.07392987817751052,"334":-0.053948020398329154,"335":0.02421336195493936,"336":-0.06311226528868402,"337":-0.0564739450041331,"338":0.03175344226719208,"339":0.06784446919886823,"340":0.07944830742733416,"341":-0.21520900373897767,"342":-0.016496689487879412,"343":0.13384360960382885,"344":-0.03969517254791843,"345":0.18669261304160448,"346":0.010978587091716854,"347":-0.021982364158976142,"348":0.01615669073516568,"349":-0.050741347982616675,"350":-0.08183362671129754,"351":-0.025001295483348368,"352":-0.019752380760231843,"353":-0.10626046325398594,"354":-0.06214979114701579,"355":-0.04656077806139321,"356":0.02895800910602571,"357":-0.14525042188837434,"358":0.015885639108360716,"359":0.116560309303804,"360":0.08143098032744718,"361":0.020308889762136594,"362":0.0912699951695729,"363":-0.083160609147443,"364":0.024497124587632268,"365":-0.1103680151092491,"366":-0.10025730129781159,"367":-0.013986332888340938,"368":-0.03967919674073368,"369":-0.15255371615422958,"370":0.06061168852801378,"371":-0.0482924016763117,"372":0.11887282295034486,"373":-0.16228663641619134,"374":-0.05386388183246539,"375":0.039626759126588446,"376":0.17076483324670738,"377":-0.0009338098779212696,"378":0.0037457694777594474,"379":-0.09434312124804499,"380":0.011962883275091828,"381":-0.00217857860016685,"382":-0.07640391478451822,"383":0.07668447709486625,"384":-0.03687561871179066,"385":-0.12961676916930828,"386":0.006028196511208652,"387":-0.018328856986795032,"388":-0.02055723146569087,"389":-0.1547377880092011,"390":-0.11103501923589425,"391":0.1528123778709802,"392":0.11555059493273667,"393":-0.07525557255327048,"394":0.15210517177528599,"395":-0.020781068445773664,"396":0.12117680022996649,"397":-0.21554236566190418,"398":-0.02580114873763943,"399":0.15245186544118752}},{"sx":5,"sy":5,"depth":16,"w":{"0":0.12467910417537509,"1":-0.07467513809509466,"2":0.10978297695585602,"3":-0.015106395780131622,"4":-0.1447466978278124,"5":0.23230091427301228,"6":-0.019373540852583453,"7":-0.014830761486094727,"8":0.12267049126642823,"9":-0.02576016056016543,"10":0.09249437513797441,"11":-0.04534937372388939,"12":-0.019486970739846527,"13":0.1940685122235715,"14":0.02126219952165838,"15":-0.04785749100846585,"16":0.10756667135101486,"17":-0.0003006683542587447,"18":-0.029372887017476167,"19":-0.05921010847530114,"20":0.038084577040794786,"21":0.12183789997395537,"22":-0.009674792997744762,"23":-0.045863805437696546,"24":-0.0014143944910946055,"25":0.03367522519516812,"26":0.05285764048083112,"27":0.04036577800482063,"28":0.053444980464406155,"29":0.03689527375927967,"30":-0.08330703659014635,"31":-0.022731370966322457,"32":0.06843541641337286,"33":-0.16423878333194422,"34":0.025329358044805995,"35":-0.04759976217348332,"36":-0.11555783509917646,"37":0.06900546166257816,"38":0.052380612033147,"39":-0.0014946340820162492,"40":-0.007259219911365778,"41":0.10586596327721924,"42":-0.005144640302259933,"43":0.01255101186177363,"44":0.08653269792479022,"45":0.03675082522019092,"46":-0.02148933306801243,"47":-0.02543399776120145,"48":-0.022458901863566548,"49":-0.04479990145024435,"50":-0.09859626771909151,"51":-0.15590714803362354,"52":0.10281958900582276,"53":0.1192103214171791,"54":0.047116706274857166,"55":0.036688142348266284,"56":-0.1077355142881508,"57":0.19872925371261432,"58":0.001853313340993327,"59":-0.03489064992175817,"60":-0.006122200872098545,"61":-0.004827491010412316,"62":-0.12540081583586132,"63":-0.12785930417371735,"64":0.009894663593106943,"65":-0.0308672414645365,"66":-0.015393019947679991,"67":-0.05708600160077934,"68":-0.10113904860490723,"69":0.04567787576072707,"70":0.043767568741635,"71":-0.02353188295305156,"72":-0.09961628754923334,"73":0.10749515122443007,"74":-0.03242555718781277,"75":0.11351803083450758,"76":0.06731781226775001,"77":-0.06080173384185888,"78":-0.07428923395581777,"79":-0.009397534342514516,"80":0.059031086071295265,"81":-0.012302047483274663,"82":-0.01232651149905847,"83":0.06024213087762714,"84":0.024375319162697716,"85":0.0724274935653766,"86":0.08612216543307481,"87":0.12850672696504534,"88":0.032437003698952645,"89":0.03447029063517015,"90":0.04034227653122629,"91":0.2630765155582191,"92":0.040580399637533966,"93":0.08000208243010397,"94":-0.11764255395828718,"95":-0.053357804759073,"96":0.16292876954486635,"97":-0.04970184483955772,"98":0.054551863260568136,"99":-0.008127515793267844,"100":0.0012630952081730065,"101":0.08003847909470589,"102":-0.10194524209448924,"103":0.017264241105512685,"104":0.1881571293641599,"105":0.034336307818950515,"106":0.050488644163767915,"107":0.14750324291108316,"108":-0.0067444984360783295,"109":0.03301168143757189,"110":-0.05838230546008981,"111":0.021559470060501792,"112":0.1169898273642144,"113":-0.06858524626402517,"114":0.1053061509584443,"115":-0.011978400349309932,"116":0.004025091928583772,"117":0.0010320643697869303,"118":-0.020229508180706266,"119":0.048233490206912165,"120":0.03313441514980708,"121":0.06629055457332239,"122":-0.030430506081603727,"123":0.08583609547300025,"124":-0.08498232893301774,"125":0.03829239369342226,"126":0.011938529539928114,"127":-0.14813989178806913,"128":0.007446176551410187,"129":0.01427502433822044,"130":0.030484094683243857,"131":-0.11259418220316862,"132":-0.022426167727837183,"133":-0.03970620859380746,"134":0.055243841636118146,"135":0.04381316713420747,"136":0.05533605765156491,"137":0.1384869984201889,"138":0.054067402407693935,"139":0.016712501985358636,"140":0.10557311233768671,"141":-0.04383320472372118,"142":0.06971790185896505,"143":-0.10895280141230027,"144":0.11794006665958505,"145":-0.09558253525760832,"146":0.015299186906913257,"147":-0.03291411987940467,"148":-0.01714151761258339,"149":-0.14433689748731954,"150":-0.05070129859200925,"151":0.08408492566140678,"152":-0.031656270430141124,"153":0.13697716011377328,"154":-0.08329482791780876,"155":-0.03151042951114765,"156":-0.017700989320835737,"157":0.02468333044571982,"158":0.03652707321235377,"159":0.07745528147268851,"160":0.1610154380342166,"161":-0.1695591746139217,"162":0.1323070814907852,"163":-0.0881824118603702,"164":0.02772658291803053,"165":0.10726670414807161,"166":-0.12497066669040201,"167":0.041801448398060964,"168":-0.0028914623873083955,"169":0.10351859323505642,"170":0.06409746828006632,"171":0.014674069504021605,"172":-0.005194501564833219,"173":-0.06293950530461169,"174":0.03188048310934131,"175":0.05331021250319763,"176":0.135989609192078,"177":-0.1494668779623434,"178":-0.01415361074287642,"179":0.034150965695734295,"180":0.04831571896965545,"181":0.04829778085114821,"182":-0.05891522210682487,"183":0.03223950223410947,"184":-0.019486215985030638,"185":0.03419707933008134,"186":-0.07817078220865989,"187":0.003597923797828579,"188":0.00040853027582472037,"189":0.033191315094151325,"190":0.029030610891496073,"191":0.07140647165292685,"192":0.019817929416404235,"193":-0.054986276630978013,"194":-0.09474723464237338,"195":-0.005916780191305894,"196":0.0016009404819586565,"197":0.04621703462291039,"198":-0.052159214019533495,"199":0.07558647954385098,"200":-0.14013990882923755,"201":0.042164881644848586,"202":0.08382136473498779,"203":-0.05489448495274637,"204":-0.028819598499749435,"205":0.01852086921023963,"206":-0.040086979150941546,"207":0.10288911592593636,"208":-0.11257642831646825,"209":-0.07942246006863933,"210":-0.017399536813252563,"211":0.01549017795122935,"212":-0.2074528255545899,"213":-0.1053164230958208,"214":-0.09407732538779293,"215":0.14342922381046108,"216":-0.16508639741738682,"217":0.09636878985648381,"218":0.01469068686999432,"219":-0.012141013038357658,"220":0.01932392189138406,"221":-0.036524434028867424,"222":-0.027538938741959902,"223":-0.11545717453374853,"224":-0.0006855519843101568,"225":0.02247654366131814,"226":-0.08817934170087253,"227":0.17112293638187442,"228":0.005956658957820708,"229":-0.1506656623362419,"230":0.00006142623650182374,"231":-0.026008527682549614,"232":-0.2185643542952322,"233":0.14962830151132736,"234":-0.07661512130412276,"235":-0.1542925717548773,"236":-0.08410518526911827,"237":-0.003266318767736024,"238":-0.047800179833514436,"239":-0.0584828365439622,"240":0.07203091213260815,"241":-0.04972407037581226,"242":0.04801015955561701,"243":-0.19115922307248412,"244":-0.14521070099393735,"245":0.048305676304547164,"246":0.024990507533511324,"247":-0.017943553695932313,"248":-0.0020465563277111856,"249":-0.09840139001932263,"250":0.06245627444183196,"251":-0.04490428334011818,"252":0.08987800552269531,"253":0.011864049079171279,"254":-0.020690107501512376,"255":-0.05814790037809679,"256":0.004929165192961787,"257":-0.14056569026148144,"258":-0.04843522678400188,"259":-0.15521169348007657,"260":0.046649079279999645,"261":0.13650483796260118,"262":0.020201052943894304,"263":-0.09212535552446284,"264":-0.028255573302887558,"265":0.1099109919769523,"266":-0.05417729176608767,"267":0.009422569385245888,"268":-0.011147839325881469,"269":0.03776935439304755,"270":-0.027607745689189188,"271":-0.07138422754695127,"272":-0.13802200957563723,"273":-0.09467258160259936,"274":0.04212712671586353,"275":-0.024315435799251283,"276":0.06505872980011077,"277":0.04235432604744693,"278":-0.0023143113817510994,"279":0.10515311870482692,"280":0.010432911217097426,"281":-0.024667812682916464,"282":0.0183813698380915,"283":-0.004444537466916436,"284":-0.06016297569651256,"285":0.0977044316397742,"286":0.11080767019118687,"287":0.008769637878348446,"288":-0.08192051978429665,"289":-0.023785094161179895,"290":-0.14278841683950041,"291":0.06928080218749041,"292":0.0335185786706053,"293":-0.028407024441702195,"294":-0.10428026824107521,"295":0.15563743661656182,"296":-0.2119895860648531,"297":0.0700717832181392,"298":-0.02251357463395801,"299":0.04510227219157496,"300":-0.06814147006745679,"301":-0.016363307019515674,"302":0.07328438561415263,"303":-0.13175155064927885,"304":-0.20996889764340856,"305":0.04824820557153549,"306":0.11598454482627395,"307":-0.011540103508818999,"308":0.0005642732114198136,"309":-0.07518877525662607,"310":0.054389492884657005,"311":-0.04953504597679385,"312":-0.14614804265157544,"313":0.20558624698042727,"314":0.04576426773462013,"315":-0.14054694095061868,"316":-0.07427011745577429,"317":-0.054949613671392374,"318":0.09445055558880991,"319":0.16374010718041274,"320":0.09170556308748298,"321":-0.062956230212902,"322":-0.06116890531200322,"323":0.004456334176848924,"324":0.009766734501518406,"325":-0.03639588530307306,"326":0.16747468782120006,"327":0.012870428489440233,"328":-0.03671335724786723,"329":0.013063891202088682,"330":0.06571193847579518,"331":-0.002432038203546248,"332":0.11651639220274256,"333":0.12367238970500705,"334":0.050050548084362136,"335":-0.0658009273641957,"336":0.0013624206743922409,"337":-0.011240707558122854,"338":-0.004470180907941681,"339":-0.04305412836736575,"340":0.044510765669948264,"341":0.003345153512980756,"342":0.0927456114353147,"343":-0.005961869390654472,"344":0.026572735862725995,"345":0.07302653989427106,"346":0.03893536338726355,"347":0.07460831454364585,"348":0.08473704073003993,"349":0.039056114491117754,"350":-0.019009929886638414,"351":0.028535675016384272,"352":0.012404567189962867,"353":0.04823751037374758,"354":0.1058730138845456,"355":0.08690673308576388,"356":0.09548084352423945,"357":-0.006789104026762245,"358":-0.04077336642434944,"359":0.033392078261658825,"360":0.008962625567906368,"361":0.01678315775780633,"362":-0.04091615430672531,"363":0.10661976334453553,"364":0.10316870935851458,"365":0.07390343914245082,"366":-0.052061251878562705,"367":-0.03388377584645919,"368":-0.04576157758616376,"369":0.021095567406801668,"370":-0.10699670645271259,"371":0.028752451474368886,"372":0.12085282118500694,"373":-0.03206781803210034,"374":-0.21834147933633347,"375":-0.008895397588841933,"376":-0.05748491127466712,"377":-0.014575808234230768,"378":0.05701420599827411,"379":0.0387082415937125,"380":0.1290994106325428,"381":-0.04726261651626964,"382":-0.10963769606644996,"383":-0.1254473570737538,"384":-0.15370038297258776,"385":0.12011992118702576,"386":0.21392822467878098,"387":0.19007335622716784,"388":0.18842476987457485,"389":-0.08679930122377111,"390":0.007888778384114881,"391":0.07385944036079464,"392":-0.11666930210848286,"393":0.25607135023148303,"394":-0.0017823819950791783,"395":-0.0759402252174472,"396":0.004116543570846224,"397":-0.11308328626860818,"398":0.19176746156666585,"399":-0.04462393081446964}},{"sx":5,"sy":5,"depth":16,"w":{"0":0.10566398869582519,"1":-0.1498953235808817,"2":-0.03925341272435427,"3":-0.018161299614491703,"4":-0.0717676248369604,"5":0.07376629428258623,"6":-0.046892949944368954,"7":-0.03896885329738454,"8":-0.05481586386541512,"9":-0.0319059480254664,"10":-0.0774707858897282,"11":-0.07809911214927837,"12":-0.014793291797649977,"13":0.02711404477282535,"14":-0.06633756308239615,"15":0.1026035248091648,"16":0.046640095731540356,"17":-0.04844698151829529,"18":-0.06723443085682194,"19":-0.19109832814470276,"20":-0.02724028880129625,"21":0.03587347448544795,"22":0.045097755668858354,"23":0.02667479049888606,"24":-0.08638585903070002,"25":-0.01276399959055058,"26":-0.09495000956734541,"27":0.03736555056062196,"28":0.026081629209881482,"29":0.011989178646914208,"30":-0.20475023734847872,"31":-0.025520587494988436,"32":0.06442409071012088,"33":-0.06673493309727194,"34":0.02515158257824113,"35":0.028871794243169935,"36":0.01466601402704834,"37":0.09472481655484329,"38":0.05552929664678598,"39":-0.11835042719677377,"40":-0.08051111283247146,"41":-0.007129393027639282,"42":-0.06548294060193588,"43":-0.046301513136866895,"44":0.03274679314661721,"45":-0.10154006566527293,"46":-0.10095358005704316,"47":-0.010471814968704918,"48":0.05524716993984321,"49":-0.008140425369768552,"50":-0.017482494224437407,"51":-0.044161806627100036,"52":-0.09160829804971779,"53":-0.05345386053344167,"54":-0.057617458575837735,"55":-0.21474206814186048,"56":0.02084854371115563,"57":0.021466320928431662,"58":-0.15688587910184873,"59":-0.1474742225349017,"60":-0.039168669547139635,"61":-0.07344349820492597,"62":-0.07238847933215137,"63":-0.15430266289806843,"64":0.13071155460283057,"65":0.09260636696496269,"66":-0.028119630203345996,"67":-0.028160738148451988,"68":-0.11339014191802885,"69":0.06481878914623329,"70":-0.07049617882884686,"71":0.06142807614902096,"72":0.004620773834700132,"73":0.08570055761483096,"74":-0.10217929503877723,"75":-0.04450715124865906,"76":0.055975567548921606,"77":-0.06510547704744483,"78":-0.024802898614529622,"79":-0.11620937320831876,"80":0.21414397030174184,"81":-0.03528026931789969,"82":0.06913237261662564,"83":0.01784765609462393,"84":-0.15795493270834643,"85":0.07953258816375099,"86":-0.06936614273742533,"87":-0.053234734227876696,"88":0.0622125419388501,"89":-0.05063677776076571,"90":-0.15509135953430916,"91":-0.016319391172855184,"92":-0.03238228398536211,"93":-0.04638564422635404,"94":-0.0185680973985868,"95":-0.08702009410875712,"96":0.05015345779328185,"97":-0.08898868108148879,"98":-0.006497921185808352,"99":-0.0010546468203655674,"100":-0.03051166711541248,"101":-0.025859660033056613,"102":-0.12153836784851442,"103":-0.09912547559118587,"104":-0.008078634386938203,"105":-0.07617559641696639,"106":-0.07979521762553739,"107":-0.02983405770571119,"108":0.021397560136583886,"109":-0.07599858904397272,"110":-0.14541006748617524,"111":-0.0886089791161876,"112":-0.06524485610843707,"113":-0.011718326168994346,"114":0.019771189092125,"115":0.102911826732085,"116":-0.07212548660229214,"117":-0.012336502943349826,"118":-0.03454695140534301,"119":-0.0017130694227948991,"120":-0.16819626882133734,"121":0.1901175722289468,"122":0.09862005967671644,"123":-0.16492251143413045,"124":-0.021253520253854092,"125":-0.18051188872948673,"126":-0.03977839770403434,"127":-0.06752797074661195,"128":-0.05502783448572675,"129":-0.010789414823712583,"130":0.006691128849632446,"131":-0.01669737410384118,"132":-0.09663404651631728,"133":-0.02003852361247715,"134":-0.08742112279413533,"135":-0.1326902775003296,"136":-0.016637950767481122,"137":-0.0017125671805640417,"138":-0.19783353109655863,"139":-0.07745740557746804,"140":0.01928942988970375,"141":-0.03829955068733755,"142":-0.1510524806473366,"143":-0.12192641657786533,"144":0.1928436898993418,"145":0.06076904682830618,"146":0.1508621451333263,"147":-0.0036915543563237423,"148":-0.07341104732616614,"149":0.07792306380616063,"150":-0.08997086176572226,"151":-0.17877175098996034,"152":0.005250356646672998,"153":0.05919057649686989,"154":-0.009599416243137352,"155":-0.01756485232720729,"156":0.02439707686398321,"157":-0.07063362318412825,"158":-0.07590406175431531,"159":-0.26015602152846623,"160":0.00009985144117670544,"161":-0.10503500495516645,"162":0.11737708707795244,"163":-0.004101380209460079,"164":0.10282450363590709,"165":-0.020345219346180488,"166":0.001632494182559109,"167":0.013434759874744077,"168":-0.1463201567054753,"169":-0.028874811127008265,"170":-0.12628653110227658,"171":0.07818214854834746,"172":0.08530723855862654,"173":-0.15666673382002247,"174":0.016855553816613657,"175":-0.031401893501407194,"176":-0.05015182587014268,"177":0.011408274392005192,"178":0.056711021825520916,"179":-0.06760287078702704,"180":-0.016015038154802104,"181":-0.14735889391154758,"182":0.03302103974034457,"183":0.0695994057592979,"184":-0.06820897264546417,"185":0.0228876303866884,"186":-0.05997342910462924,"187":0.05170661728207271,"188":0.1480107770407112,"189":-0.022704117221186645,"190":-0.0830144697907041,"191":-0.11196136111120017,"192":-0.22703745956878982,"193":0.02520751447705472,"194":0.101973579193802,"195":-0.01277106656270913,"196":-0.16757931515176014,"197":-0.13894514868760346,"198":0.03241388438096157,"199":-0.009701159795734885,"200":-0.316849973198653,"201":0.01897579423864798,"202":0.04687295946451062,"203":-0.02987153630289342,"204":0.05774495323506646,"205":-0.1307683735470184,"206":-0.03061392506631417,"207":-0.052042844609364994,"208":-0.17497485525606932,"209":0.03130252312032256,"210":-0.023076614266051277,"211":-0.029577168864925885,"212":-0.14421805903104365,"213":-0.10196313958365504,"214":-0.0021979662377563237,"215":-0.017423758692282545,"216":-0.16029207448688274,"217":0.10082789660004499,"218":-0.14130615787296305,"219":0.035909542476093424,"220":0.04904283105618109,"221":-0.030100914850648676,"222":-0.039896128291554464,"223":-0.04489348887380111,"224":0.09439692138182068,"225":0.032118646076511194,"226":0.0052734405890290294,"227":-0.07176767362937687,"228":-0.09436019305140632,"229":0.05591934570930036,"230":0.021285517667749415,"231":-0.0056326278535992055,"232":-0.0005378433482177442,"233":0.0521246450226504,"234":-0.03020429898713589,"235":-0.04373174766825136,"236":0.1751276515548607,"237":-0.02297314067886708,"238":-0.018083203864009658,"239":-0.01671715143054474,"240":0.03152437705929231,"241":-0.03944095444076985,"242":0.05818513002750476,"243":-0.041040992996261176,"244":0.12646133971585508,"245":-0.0821376118056632,"246":0.007019486451623429,"247":0.18722854768074892,"248":0.04904003660566326,"249":0.02495231878046036,"250":0.018955778388224504,"251":0.20098687213975536,"252":-0.04408043540689981,"253":0.09991037003037789,"254":0.07086236662293996,"255":-0.11166734051399227,"256":-0.27260636228105817,"257":-0.11918823953713895,"258":0.09026713027675295,"259":-0.059263543559486355,"260":0.08134428337920267,"261":-0.14209969581785792,"262":-0.05579825462680049,"263":0.03793148676892949,"264":-0.07128685705645166,"265":0.03553593701279522,"266":0.04838666132121429,"267":0.044863542677557725,"268":0.16627908573433364,"269":0.037085624640588524,"270":0.0724111430865795,"271":0.03541113441092716,"272":-0.2863493797014582,"273":-0.02368610206552455,"274":0.06983695582719084,"275":0.025947325693306964,"276":0.022075054033473904,"277":-0.07190440795784628,"278":0.12587301679559412,"279":-0.12627313422919365,"280":-0.2250303753272338,"281":0.16910441085726508,"282":0.07175162688696471,"283":0.029252212407763316,"284":0.025594283826125316,"285":-0.02441070953049489,"286":0.13186326787346794,"287":0.07683289288665693,"288":-0.13966442742990526,"289":0.172533774221338,"290":-0.10061065135970715,"291":0.10638166071033511,"292":0.051788928424557304,"293":-0.07428031654709333,"294":0.1252913633771906,"295":-0.14138392488421161,"296":-0.0871724032526733,"297":0.0472483765085132,"298":0.005230069322457171,"299":0.015083681768826141,"300":0.10319831096122299,"301":-0.032578144478411813,"302":0.10180767139983153,"303":0.0667917329666991,"304":-0.062049459740358213,"305":0.038553013790492696,"306":0.0423944664330828,"307":-0.0011191451189374697,"308":-0.03973333728378468,"309":-0.06068491945137327,"310":-0.011050377275744878,"311":-0.0027681101884415907,"312":-0.04644133144292622,"313":0.026270502211313832,"314":-0.00909670308060041,"315":0.10415728742741612,"316":0.12196648594003197,"317":0.05055732150202305,"318":0.004713555993504881,"319":0.008533745450281646,"320":-0.06961516740116244,"321":-0.11988478556767825,"322":0.11963408894219311,"323":-0.03358084197392589,"324":0.013360345440611496,"325":-0.08992186323472286,"326":0.07465675198283205,"327":0.08542977102340302,"328":-0.06335929949537301,"329":-0.12755699758798228,"330":0.05639917577680573,"331":0.13709486871771678,"332":0.061716191413274564,"333":-0.013184337739196065,"334":0.046757789446269515,"335":-0.11914718919465982,"336":-0.13653303681022153,"337":-0.052694385144159625,"338":0.03351796796121715,"339":0.0008464835429538725,"340":0.0238274317601454,"341":-0.04604675967585756,"342":-0.006991791370390919,"343":-0.07920607637772316,"344":-0.21515041505462276,"345":-0.041669039194387206,"346":0.01311002906000356,"347":0.06793276122529313,"348":0.018942080285631397,"349":0.18777449734060592,"350":-0.003511511696736163,"351":0.031843642291974145,"352":-0.1697785894322424,"353":0.0018975902774857444,"354":0.09695197458201238,"355":0.0651057887351926,"356":0.07642971022266934,"357":0.10705922058372679,"358":0.07432046847223137,"359":-0.05615332459731527,"360":-0.20703282125871367,"361":-0.0794972688498102,"362":-0.04359154987198798,"363":-0.03839203353232846,"364":-0.0019796823420949704,"365":0.06863476624368245,"366":-0.0023697983220635956,"367":0.09071835592378635,"368":-0.09279757059008345,"369":0.006080848606468376,"370":0.10918276758141063,"371":-0.0424054952184189,"372":0.039950115728987684,"373":0.0010649070324034303,"374":0.176203923289581,"375":-0.010390957869633146,"376":-0.13699761607346622,"377":0.025957370749939153,"378":-0.06625339968253564,"379":-0.0007482055866888445,"380":0.06485436020846023,"381":0.006690166024999818,"382":0.0638087315726449,"383":0.0716848897017539,"384":-0.08543333430453541,"385":0.06333334371159655,"386":0.04787756262497704,"387":-0.019686841644563035,"388":0.06374634363624514,"389":0.05574586340737352,"390":-0.00676859242035237,"391":0.052004893530439876,"392":0.004242644167815229,"393":0.03265426256157401,"394":-0.16704205942954334,"395":-0.06041769914940835,"396":-0.06212809357343661,"397":0.14711313593044484,"398":0.08503709595919969,"399":0.07087208258589975}},{"sx":5,"sy":5,"depth":16,"w":{"0":-0.013904788846990932,"1":0.07576642144851009,"2":0.0006903391327033067,"3":-0.01910585488410176,"4":-0.13194966006785705,"5":-0.06394538134335584,"6":0.022066894172096174,"7":-0.10581034609909608,"8":0.01846814459602121,"9":-0.0300141224135094,"10":-0.0742024501496005,"11":-0.05943743857462135,"12":-0.03619047043298603,"13":-0.05182061271657473,"14":-0.02281327303046871,"15":-0.09436310700392017,"16":0.048545353158127524,"17":-0.07630825028356944,"18":0.03601315096750326,"19":-0.1593236005116184,"20":-0.1207045504471196,"21":0.042416948572610046,"22":0.05778050804989648,"23":-0.06935757458434645,"24":-0.04054372157009155,"25":-0.05866409752235885,"26":-0.03937903251256059,"27":-0.06114667491267587,"28":-0.00535220814375513,"29":0.030126573647489437,"30":-0.10285660418060577,"31":-0.05518839218094823,"32":0.04805643100331925,"33":-0.06599838568333274,"34":0.054820439518400176,"35":-0.02036377425140381,"36":-0.08767311101605672,"37":0.04242826111020308,"38":0.022871454257074708,"39":0.04471854964316032,"40":-0.05975619842807546,"41":-0.003025593369503069,"42":-0.015850383475556146,"43":-0.12144595644513953,"44":-0.04162050923454672,"45":0.17652547639529212,"46":0.10514880559206638,"47":0.048408870584059835,"48":0.012966037647503969,"49":-0.05447766516423727,"50":0.03119097278116339,"51":-0.06146340283699143,"52":0.010879401541763534,"53":0.01591714192103713,"54":0.08271119986377298,"55":-0.005422380939525838,"56":-0.0941703889174655,"57":0.1192831443634307,"58":-0.02876806070596452,"59":0.02183537630674205,"60":0.007313702241112026,"61":0.012762734231478633,"62":0.034432467632034384,"63":-0.04172232089306976,"64":-0.005369387537124681,"65":0.029470627258702264,"66":0.17668758564014359,"67":0.018407987045666693,"68":-0.04959840996326428,"69":0.03883722680090941,"70":0.04605498955126203,"71":0.06325602786211235,"72":-0.1262921391189294,"73":0.09387832869802054,"74":0.0003526485219109368,"75":-0.13699260515172737,"76":0.0016781474145271943,"77":0.015540216670682346,"78":-0.009222517194659875,"79":-0.02641267507315421,"80":0.06467438658629812,"81":-0.15701834380938634,"82":0.039701945225145384,"83":-0.026764468838120385,"84":-0.04601507450071207,"85":0.029959012132315298,"86":0.034225419417230764,"87":-0.05508281431673184,"88":0.05031307006601863,"89":0.09333586025605571,"90":-0.115461809888502,"91":0.024769890128546062,"92":-0.0086364330143451,"93":-0.008108260894529313,"94":-0.07824395182054554,"95":-0.07942365323652631,"96":0.013684860989427793,"97":-0.13754237946899364,"98":0.11311489807177334,"99":-0.04886893616314788,"100":-0.1639412645718253,"101":-0.012255565698538936,"102":0.11665582871520597,"103":-0.0807705541612419,"104":-0.08158855220723345,"105":-0.004533212353557587,"106":0.020404746722297334,"107":0.01953248972209317,"108":-0.03512901452147203,"109":0.06632724305069052,"110":-0.052758888463077136,"111":-0.1304357424334291,"112":0.03288379670715195,"113":-0.04304734270331922,"114":-0.07745462109133401,"115":-0.010949330681180255,"116":-0.03488508310933295,"117":-0.020051001633875593,"118":-0.002904673196002854,"119":-0.009781962926073542,"120":-0.048459710360150766,"121":-0.005702985918814994,"122":-0.041288889383909955,"123":0.09830293432117557,"124":-0.017532492944456406,"125":0.03599507954360331,"126":-0.16322892445940584,"127":-0.16678804338929842,"128":-0.006559530890408641,"129":-0.10588817353466645,"130":-0.021755047945143047,"131":-0.06494579235181037,"132":-0.052084425000642,"133":0.014358048632532925,"134":0.011516764747749044,"135":0.025694619136939125,"136":-0.16360691153985413,"137":-0.03199081305449067,"138":0.0849153318580692,"139":-0.020540126157899317,"140":-0.019483858898682597,"141":0.049854171528634104,"142":-0.08605537303375498,"143":-0.0299635874071987,"144":-0.06555749532865829,"145":0.02425145707385066,"146":0.14743493911684127,"147":-0.0714702685384485,"148":-0.08245210351945877,"149":0.004917944481176171,"150":-0.06638558783640429,"151":-0.03314118967363624,"152":-0.19913753992439986,"153":0.01633757240589107,"154":-0.01931746416046069,"155":-0.16569078069693863,"156":0.020157240670409464,"157":0.07282181210596694,"158":0.01727079598472209,"159":0.09239520203285095,"160":0.2001968087815374,"161":-0.21852576314137756,"162":0.055650293143088746,"163":-0.02646123085845329,"164":0.07608672038247612,"165":0.11511678788434958,"166":0.05421590561493433,"167":-0.03071618091883201,"168":-0.07120416633642164,"169":0.05614995434292913,"170":-0.09237315059177278,"171":0.04405583862980099,"172":-0.05282961875341395,"173":0.08114274421221529,"174":-0.16511703691370425,"175":-0.15278306221312432,"176":0.09403981648284568,"177":-0.11715899036622783,"178":0.05907892927081146,"179":-0.06135663489876283,"180":0.09050997198111933,"181":0.09298953240746519,"182":0.010856904861428592,"183":0.05536560329097531,"184":0.01831585347345247,"185":-0.11982585989355665,"186":0.012384971167914411,"187":0.09875566045372224,"188":0.05230566273593607,"189":0.00017769532685332648,"190":-0.06123546523215494,"191":0.006027667176633325,"192":0.03875929661465205,"193":0.001728549432927153,"194":-0.12396401908359715,"195":0.02167479302328016,"196":-0.16046254764911136,"197":-0.006281004167240802,"198":0.029927870658938517,"199":-0.02436327711949224,"200":0.044530001830591755,"201":-0.05723397047806913,"202":0.06441956266880773,"203":0.03396513765275945,"204":0.01806523753115432,"205":0.10629188570717651,"206":-0.1310657769646497,"207":0.01563556033454295,"208":0.04552830629665237,"209":0.010678146743675542,"210":-0.05251640524396805,"211":-0.009097842525583377,"212":-0.19119393516630395,"213":0.04977006073320836,"214":0.11351753608841576,"215":-0.09539551502728284,"216":-0.03063932090424104,"217":-0.018028483762829162,"218":0.05047011072284788,"219":0.11233282027727208,"220":-0.01193256363243704,"221":0.03186152608065077,"222":-0.08797066839569907,"223":-0.08216095944743329,"224":0.09349861952244758,"225":0.029476383108199177,"226":-0.021012561538198693,"227":0.19887049517850783,"228":-0.16380572464395174,"229":0.11147518639334777,"230":-0.09407888267794147,"231":-0.09494827802586467,"232":-0.056045465378501684,"233":0.01770294534902711,"234":0.06195244489744057,"235":-0.01778258977548842,"236":-0.09404259425824803,"237":0.09739562440249515,"238":-0.12823802455773814,"239":-0.12184618527151647,"240":0.11285601198717105,"241":0.02994939832908707,"242":0.1558598278081869,"243":0.04164687712342366,"244":0.2255658326453909,"245":0.02885830485614952,"246":0.041147501060985116,"247":0.041601048677310175,"248":0.01933835389769065,"249":0.026765568429019195,"250":0.01518682339898515,"251":0.0011815117433692558,"252":0.09853384587118863,"253":-0.010353560143204332,"254":-0.08302086137037483,"255":-0.0693436450475391,"256":0.07333007947394597,"257":0.10167260848035509,"258":-0.17064086056572217,"259":-0.1003349848329432,"260":0.03387741694077175,"261":0.04966582366413654,"262":0.07277277123644067,"263":0.059802080487833024,"264":-0.007627145555447249,"265":-0.06271508277125067,"266":-0.046563616864623215,"267":-0.003545023574686843,"268":0.044916047081870025,"269":-0.013364068621870092,"270":-0.07078553452647522,"271":0.057832612313517086,"272":0.0027194705310930726,"273":-0.0649373519199471,"274":-0.004067878564650949,"275":0.0022425669863690755,"276":-0.199163841091942,"277":0.04317238899768112,"278":-0.04430598104438607,"279":-0.10735985742895407,"280":-0.1577582661554783,"281":-0.013914075557230095,"282":0.022968912148540487,"283":-0.04980247747642918,"284":0.013433835225557019,"285":0.1086628448536216,"286":-0.06251911186432449,"287":-0.08300683559819513,"288":0.04386056525836883,"289":0.04169654905060145,"290":-0.04472993377194699,"291":0.0952215839914449,"292":-0.2743178289519549,"293":0.08794861529570033,"294":-0.06376068149226456,"295":-0.006420857016469132,"296":0.011426698418564581,"297":-0.0128996050175236,"298":0.014002352693079013,"299":-0.057419756476257335,"300":-0.08308569608441721,"301":0.124739277118438,"302":-0.0420824448829434,"303":-0.1506997745222978,"304":0.05195041294961229,"305":-0.01677954129655239,"306":-0.009133498028862234,"307":0.03686891888104303,"308":-0.16951530970023912,"309":0.08676200133872188,"310":-0.011947894241502858,"311":-0.11759635439125667,"312":0.03105978496832579,"313":-0.006296793871013885,"314":0.13226447689797674,"315":-0.04560559140477148,"316":0.027478950859277398,"317":0.059430058112783804,"318":-0.0666281910027085,"319":-0.013481075069554413,"320":0.12495469478411884,"321":-0.0004575593270230947,"322":-0.0919083491534864,"323":0.0439637679739972,"324":0.03489261822857139,"325":0.15749799015842067,"326":0.10763086848065612,"327":0.16313366124830853,"328":0.14939558595081348,"329":0.002453159273728513,"330":0.05794528196827491,"331":0.17519404795487992,"332":0.016338689409100063,"333":0.025176390980403585,"334":0.01016685829666579,"335":0.033653473964145426,"336":-0.085389984149543,"337":0.05637384849460131,"338":-0.057955803228276995,"339":0.03023679238057951,"340":-0.04718767482924421,"341":0.019953343497380007,"342":-0.05135281829102669,"343":0.0042669624066610685,"344":-0.04143602669640948,"345":-0.03619544042584412,"346":-0.10771071597402658,"347":0.020967160367589548,"348":0.08160847524239062,"349":0.023506637908279872,"350":0.12524534228876918,"351":0.06774763592047209,"352":0.042218335582100364,"353":-0.032348465444969,"354":0.005721849378705716,"355":0.19316244897693605,"356":-0.010599821940974466,"357":0.10380814270260923,"358":-0.08303759542718361,"359":0.03972481886658146,"360":-0.18424866983965496,"361":0.014173785979595462,"362":0.13357693149915206,"363":0.0020308067446745456,"364":-0.0017075126444245452,"365":-0.031887723559155846,"366":0.004383496130238877,"367":0.016409361592713192,"368":0.054641325282023555,"369":0.08862635319496821,"370":0.04430966082483972,"371":-0.002152274574906628,"372":-0.2636718012387081,"373":0.08189091162383726,"374":0.10649674781139642,"375":-0.04664673406371938,"376":-0.22529079202981064,"377":0.11702320634765338,"378":0.1529506688506504,"379":0.04349866848981748,"380":-0.06956183235433686,"381":0.06941906394534542,"382":-0.010843819188943643,"383":-0.02085935478929942,"384":0.12120169964695468,"385":0.061693359800776684,"386":0.1150828114824513,"387":0.1447493883657377,"388":-0.10162730911579942,"389":0.11902189982749996,"390":0.17350238018123693,"391":-0.06061796541485483,"392":-0.01386080909643174,"393":0.16007109556086685,"394":0.1803431936238796,"395":0.010689211098682493,"396":0.014978213094490758,"397":0.027135316562791053,"398":0.025322505513166484,"399":-0.004965334714378748}},{"sx":5,"sy":5,"depth":16,"w":{"0":0.1822248868816513,"1":-0.0010739845270556672,"2":0.16417164371669288,"3":-0.040071031471156586,"4":-0.1010816074893206,"5":0.04836238360530141,"6":0.08257724431778365,"7":0.06093566576392772,"8":0.0043796380925975945,"9":0.1006173833032187,"10":0.10878157198932194,"11":0.01276181591120332,"12":0.16534489171115,"13":0.07083906109526245,"14":-0.07802574824484718,"15":-0.09755632805339337,"16":0.14082542113506746,"17":0.007586499187940311,"18":0.09543621456124907,"19":-0.024123428031754764,"20":-0.019155395855372008,"21":0.16135351055328828,"22":-0.05368804215957232,"23":0.10100333002489188,"24":-0.05545412782915713,"25":0.19465845541013474,"26":-0.14614447674173195,"27":-0.12522253424422236,"28":-0.030617618028648087,"29":0.07431402985138362,"30":-0.031744595148558374,"31":-0.009235015806089254,"32":0.06546532963944461,"33":0.032873353241227185,"34":0.05960827328272546,"35":-0.030588930734631987,"36":-0.056346742021616596,"37":-0.0012786171120466978,"38":0.05884184996733054,"39":-0.11059039651019371,"40":-0.02453440621066208,"41":0.15839220297393627,"42":-0.124095251729564,"43":-0.08136157015188854,"44":-0.17997630574144394,"45":-0.07192404394853222,"46":-0.23722783361402985,"47":-0.14663131351814782,"48":0.133533161585816,"49":-0.031013789454130188,"50":-0.005742357694710139,"51":-0.21777423596331494,"52":-0.0800457580507867,"53":-0.04213114438124011,"54":-0.0071418122104184205,"55":0.07546067799117086,"56":0.0313812696802229,"57":0.15614608793369428,"58":-0.15690554932296713,"59":0.019982903273652798,"60":-0.11070455984087582,"61":-0.0415003475644462,"62":-0.024959677435071787,"63":0.009628781002182453,"64":0.1260833209825691,"65":-0.03431695158535899,"66":-0.0007833995267072921,"67":-0.003617888709937399,"68":0.06046318268063124,"69":0.06431142324735381,"70":0.017987541876437568,"71":0.12457809758596225,"72":-0.05182004769763379,"73":0.04609549917496973,"74":0.0032105499448421672,"75":0.05412105478347012,"76":-0.02263157565509263,"77":-0.024729408344275935,"78":0.06676957861579995,"79":-0.003864690355793374,"80":0.04459426363446004,"81":0.0625535070518035,"82":0.11494722169447652,"83":0.07368529681440765,"84":-0.16952403433258148,"85":0.005377773127390759,"86":0.1066527626266251,"87":0.007510408903643303,"88":-0.011799735339114574,"89":0.11009660732260343,"90":0.1402164608838347,"91":-0.038440519396034836,"92":0.03014605206091742,"93":0.0007077772081208997,"94":-0.10486711669772879,"95":-0.012607777245988086,"96":0.06033730249797411,"97":0.05263839767853359,"98":0.1847531340503181,"99":-0.06683183806959972,"100":-0.03623201217968212,"101":-0.11988546594400615,"102":-0.08180939110513595,"103":-0.020898170675454027,"104":-0.00526770874909807,"105":0.08531154020299125,"106":-0.09208567772152415,"107":-0.08158670842267701,"108":0.04103175299057506,"109":0.05855332089958105,"110":-0.23876382801632004,"111":-0.07605828853019954,"112":0.08753624516646993,"113":-0.02944370604920301,"114":0.1664419659934537,"115":-0.12786839880844328,"116":-0.05436968516738941,"117":-0.07823352535396452,"118":-0.05358981091052196,"119":-0.07465873453321528,"120":-0.07767375446236358,"121":0.08805337629630679,"122":-0.12691508675462565,"123":-0.07838352815719099,"124":-0.051911900885172294,"125":-0.03250192394663702,"126":-0.20179805542533413,"127":-0.15689412546633563,"128":0.1745499612051427,"129":-0.1121473365241052,"130":0.060674710476652,"131":-0.07722532637035727,"132":-0.04415724479643308,"133":0.09452741101362074,"134":-0.03639833393086413,"135":0.04363994891369246,"136":0.020989520609247386,"137":0.11962374288262231,"138":-0.05205688101744966,"139":-0.04502102837905039,"140":0.009789225776527301,"141":-0.03874684605685399,"142":-0.11712466987166034,"143":-0.06873766734616092,"144":0.10381027550819286,"145":-0.01913520973591518,"146":-0.046913376226216226,"147":0.015716370254343474,"148":0.023598927567260928,"149":0.016825128571369002,"150":-0.012147391120243494,"151":0.008850009357390644,"152":-0.08728742373066631,"153":0.09246829377147815,"154":0.04890696632636569,"155":0.12977876192134577,"156":0.08313813412612271,"157":-0.07141251399725858,"158":-0.15369064160133328,"159":-0.24688611558498882,"160":0.023916933238844525,